{"learner":{"attributes":{"best_iteration":"299","best_ntree_limit":"300","scikit_learn":"{\"use_label_encoder\": true, \"n_estimators\": 300, \"objective\": \"reg:logistic\", \"max_depth\": 2, \"learning_rate\": 0.1, \"verbosity\": null, \"booster\": null, \"tree_method\": null, \"gamma\": null, \"min_child_weight\": 3, \"max_delta_step\": 0.4, \"subsample\": 0.9, \"colsample_bytree\": 0.9, \"colsample_bylevel\": null, \"colsample_bynode\": null, \"reg_alpha\": null, \"reg_lambda\": null, \"scale_pos_weight\": 1.0917333333333332, \"base_score\": null, \"missing\": NaN, \"num_parallel_tree\": null, \"random_state\": null, \"n_jobs\": null, \"monotone_constraints\": null, \"interaction_constraints\": null, \"importance_type\": null, \"gpu_id\": null, \"validate_parameters\": null, \"predictor\": null, \"enable_categorical\": false, \"kwargs\": {\"seed\": 27}, \"classes_\": [0, 1], \"n_classes_\": 2, \"_le\": {\"classes_\": [0, 1]}, \"_estimator_type\": \"classifier\"}"},"feature_names":["ExternalRiskEstimate","MSinceOldestTradeOpen","MSinceMostRecentTradeOpen","AverageMInFile","NumSatisfactoryTrades","NumTrades60Ever2DerogPubRec","NumTrades90Ever2DerogPubRec","PercentTradesNeverDelq","MSinceMostRecentDelq","MaxDelq2PublicRecLast12M","MaxDelqEver","NumTotalTrades","NumTradesOpeninLast12M","PercentInstallTrades","MSinceMostRecentInqexcl7days","NumInqLast6M","NumInqLast6Mexcl7days","NetFractionRevolvingBurden","NetFractionInstallBurden","NumRevolvingTradesWBalance","NumInstallTradesWBalance","NumBank2NatlTradesWHighUtilization","PercentTradesWBalance"],"feature_types":["int","int","int","int","int","int","int","int","int","int","int","int","int","int","int","int","int","int","int","int","int","int","int"],"gradient_booster":{"model":{"gbtree_model_param":{"num_trees":"300","size_leaf_vector":"0"},"tree_info":[0,0,0,0,0,0,0,0,0,0,0,0,0,0,0,0,0,0,0,0,0,0,0,0,0,0,0,0,0,0,0,0,0,0,0,0,0,0,0,0,0,0,0,0,0,0,0,0,0,0,0,0,0,0,0,0,0,0,0,0,0,0,0,0,0,0,0,0,0,0,0,0,0,0,0,0,0,0,0,0,0,0,0,0,0,0,0,0,0,0,0,0,0,0,0,0,0,0,0,0,0,0,0,0,0,0,0,0,0,0,0,0,0,0,0,0,0,0,0,0,0,0,0,0,0,0,0,0,0,0,0,0,0,0,0,0,0,0,0,0,0,0,0,0,0,0,0,0,0,0,0,0,0,0,0,0,0,0,0,0,0,0,0,0,0,0,0,0,0,0,0,0,0,0,0,0,0,0,0,0,0,0,0,0,0,0,0,0,0,0,0,0,0,0,0,0,0,0,0,0,0,0,0,0,0,0,0,0,0,0,0,0,0,0,0,0,0,0,0,0,0,0,0,0,0,0,0,0,0,0,0,0,0,0,0,0,0,0,0,0,0,0,0,0,0,0,0,0,0,0,0,0,0,0,0,0,0,0,0,0,0,0,0,0,0,0,0,0,0,0,0,0,0,0,0,0,0,0,0,0,0,0,0,0,0,0,0,0,0,0,0,0,0,0,0,0,0,0,0,0],"trees":[{"base_weights":[8.769638E-3,-4E-1,4E-1,-3.5644066E-2,-4E-1,2.7024208E-2,4E-1],"categories":[],"categories_nodes":[],"categories_segments":[],"categories_sizes":[],"default_left":[true,true,true,false,false,false,false],"id":0,"left_children":[1,3,5,-1,-1,-1,-1],"loss_changes":[8.803996E2,1.5100372E1,3.23443E1,0E0,0E0,0E0,0E0],"parents":[2147483647,0,0,1,1,2,2],"right_children":[2,4,6,-1,-1,-1,-1],"split_conditions":[7.05E1,-7.5E0,7.45E1,-3.5644067E-3,-4.0000003E-2,2.7024208E-3,4.0000003E-2],"split_indices":[0,14,0,0,0,0,0],"split_type":[0,0,0,0,0,0,0],"sum_hessian":[1.8315353E3,8.78672E2,9.5286334E2,1.1395133E2,7.6472064E2,2.326572E2,7.202061E2],"tree_param":{"num_deleted":"0","num_feature":"23","num_nodes":"7","size_leaf_vector":"0"}},{"base_weights":[-4.991303E-4,-4E-1,4E-1,-3.1900577E-2,-4E-1,-1.5858367E-1,4E-1],"categories":[],"categories_nodes":[],"categories_segments":[],"categories_sizes":[],"default_left":[true,true,true,false,false,false,false],"id":1,"left_children":[1,3,5,-1,-1,-1,-1],"loss_changes":[8.359757E2,1.6016266E1,3.8137238E1,0E0,0E0,0E0,0E0],"parents":[2147483647,0,0,1,1,2,2],"right_children":[2,4,6,-1,-1,-1,-1],"split_conditions":[7.05E1,-7.5E0,5.45E1,-3.1900578E-3,-4.0000003E-2,-1.5858367E-2,4.0000003E-2],"split_indices":[0,14,3,0,0,0,0],"split_type":[0,0,0,0,0,0,0],"sum_hessian":[1.8404377E3,8.9191034E2,9.4852747E2,1.1838442E2,7.735259E2,1.2174135E2,8.267861E2],"tree_param":{"num_deleted":"0","num_feature":"23","num_nodes":"7","size_leaf_vector":"0"}},{"base_weights":[-4.6259626E-3,-4E-1,4E-1,-1.2228761E-1,-4E-1,-2.8664154E-1,4E-1],"categories":[],"categories_nodes":[],"categories_segments":[],"categories_sizes":[],"default_left":[true,true,true,false,false,false,false],"id":2,"left_children":[1,3,5,-1,-1,-1,-1],"loss_changes":[7.799508E2,8.787781E0,4.017096E1,0E0,0E0,0E0,0E0],"parents":[2147483647,0,0,1,1,2,2],"right_children":[2,4,6,-1,-1,-1,-1],"split_conditions":[7.05E1,-7.5E0,4.85E1,-1.2228761E-2,-4.0000003E-2,-2.8664155E-2,4.0000003E-2],"split_indices":[0,14,3,0,0,0,0],"split_type":[0,0,0,0,0,0,0],"sum_hessian":[1.8395613E3,8.831681E2,9.5639325E2,1.15016556E2,7.681515E2,8.454172E1,8.7185156E2],"tree_param":{"num_deleted":"0","num_feature":"23","num_nodes":"7","size_leaf_vector":"0"}},{"base_weights":[1.007114E-2,-4E-1,4E-1,-4E-1,-1.4409728E-1,-1.0182057E-1,4E-1],"categories":[],"categories_nodes":[],"categories_segments":[],"categories_sizes":[],"default_left":[true,true,true,false,false,false,false],"id":3,"left_children":[1,3,5,-1,-1,-1,-1],"loss_changes":[7.6604736E2,1.4885498E1,1.6606995E1,0E0,0E0,0E0,0E0],"parents":[2147483647,0,0,1,1,2,2],"right_children":[2,4,6,-1,-1,-1,-1],"split_conditions":[7.25E1,6.85E1,4.85E1,-4.0000003E-2,-1.4409728E-2,-1.01820575E-2,4.0000003E-2],"split_indices":[0,0,3,0,0,0,0],"split_type":[0,0,0,0,0,0,0],"sum_hessian":[1.8344392E3,9.980441E2,8.363951E2,7.692936E2,2.2875056E2,6.558255E1,7.7081256E2],"tree_param":{"num_deleted":"0","num_feature":"23","num_nodes":"7","size_leaf_vector":"0"}},{"base_weights":[4.997805E-3,-4E-1,4E-1,-7.41295E-2,-4E-1,4.1260924E-2,4E-1],"categories":[],"categories_nodes":[],"categories_segments":[],"categories_sizes":[],"default_left":[true,true,true,false,false,false,false],"id":4,"left_children":[1,3,5,-1,-1,-1,-1],"loss_changes":[6.932978E2,1.7430542E1,3.7111145E1,0E0,0E0,0E0,0E0],"parents":[2147483647,0,0,1,1,2,2],"right_children":[2,4,6,-1,-1,-1,-1],"split_conditions":[7.05E1,4.75E1,7.55E1,-7.41295E-3,-4.0000003E-2,4.1260924E-3,4.0000003E-2],"split_indices":[0,22,0,0,0,0,0],"split_type":[0,0,0,0,0,0,0],"sum_hessian":[1.8347869E3,8.8475995E2,9.5002686E2,1.6464882E2,7.2011115E2,2.8861136E2,6.614155E2],"tree_param":{"num_deleted":"0","num_feature":"23","num_nodes":"7","size_leaf_vector":"0"}},{"base_weights":[-6.59621E-4,-4E-1,4E-1,-3.6790438E-2,-4E-1,4E-1,-3.60887E-1],"categories":[],"categories_nodes":[],"categories_segments":[],"categories_sizes":[],"default_left":[true,true,true,false,false,false,false],"id":5,"left_children":[1,3,5,-1,-1,-1,-1],"loss_changes":[6.571614E2,2.6714111E1,2.863559E1,0E0,0E0,0E0,0E0],"parents":[2147483647,0,0,1,1,2,2],"right_children":[2,4,6,-1,-1,-1,-1],"split_conditions":[7.35E1,4.85E1,5.05E1,-3.6790438E-3,-4.0000003E-2,4.0000003E-2,-3.60887E-2],"split_indices":[0,22,17,0,0,0,0],"split_type":[0,0,0,0,0,0,0],"sum_hessian":[1.8385477E3,1.0650317E3,7.73516E2,2.0271332E2,8.6231836E2,7.2477826E2,4.8737713E1],"tree_param":{"num_deleted":"0","num_feature":"23","num_nodes":"7","size_leaf_vector":"0"}},{"base_weights":[1.8769082E-3,-4E-1,4E-1,-3.53309E-2,-4E-1,-8.669891E-2,4E-1],"categories":[],"categories_nodes":[],"categories_segments":[],"categories_sizes":[],"default_left":[true,true,true,false,false,false,false],"id":6,"left_children":[1,3,5,-1,-1,-1,-1],"loss_changes":[6.11885E2,1.5321167E1,3.9817352E1,0E0,0E0,0E0,0E0],"parents":[2147483647,0,0,1,1,2,2],"right_children":[2,4,6,-1,-1,-1,-1],"split_conditions":[7.05E1,-7.5E0,5.95E1,-3.53309E-3,-4.0000003E-2,-8.669891E-3,4.0000003E-2],"split_indices":[0,14,3,0,0,0,0],"split_type":[0,0,0,0,0,0,0],"sum_hessian":[1.825556E3,8.768488E2,9.487073E2,1.1541382E2,7.61435E2,1.6776936E2,7.8093787E2],"tree_param":{"num_deleted":"0","num_feature":"23","num_nodes":"7","size_leaf_vector":"0"}},{"base_weights":[1.9439122E-2,-4E-1,4E-1,-4E-1,9.980234E-2,4E-1,-3.032628E-1],"categories":[],"categories_nodes":[],"categories_segments":[],"categories_sizes":[],"default_left":[true,true,true,false,false,false,false],"id":7,"left_children":[1,3,5,-1,-1,-1,-1],"loss_changes":[5.69049E2,4.901808E1,1.8321594E1,0E0,0E0,0E0,0E0],"parents":[2147483647,0,0,1,1,2,2],"right_children":[2,4,6,-1,-1,-1,-1],"split_conditions":[7.45E1,1.5E0,5.05E1,-4.0000003E-2,9.980234E-3,4.0000003E-2,-3.032628E-2],"split_indices":[0,14,17,0,0,0,0],"split_type":[0,0,0,0,0,0,0],"sum_hessian":[1.8126556E3,1.1018707E3,7.107849E2,9.060027E2,1.9586806E2,6.744166E2,3.636829E1],"tree_param":{"num_deleted":"0","num_feature":"23","num_nodes":"7","size_leaf_vector":"0"}},{"base_weights":[1.805009E-2,-4E-1,4E-1,1.5362366E-2,-4E-1,3.3828463E-2,4E-1],"categories":[],"categories_nodes":[],"categories_segments":[],"categories_sizes":[],"default_left":[true,true,true,false,false,false,false],"id":8,"left_children":[1,3,5,-1,-1,-1,-1],"loss_changes":[5.2554816E2,2.0198914E1,3.9107697E1,0E0,0E0,0E0,0E0],"parents":[2147483647,0,0,1,1,2,2],"right_children":[2,4,6,-1,-1,-1,-1],"split_conditions":[7.05E1,-7.5E0,7.55E1,1.5362366E-3,-4.0000003E-2,3.3828465E-3,4.0000003E-2],"split_indices":[0,14,0,0,0,0,0],"split_type":[0,0,0,0,0,0,0],"sum_hessian":[1.8111234E3,8.6741156E2,9.4371185E2,1.17004944E2,7.504066E2,2.918643E2,6.518476E2],"tree_param":{"num_deleted":"0","num_feature":"23","num_nodes":"7","size_leaf_vector":"0"}},{"base_weights":[2.1176703E-2,-4E-1,4E-1,-1.4910971E-2,-4E-1,2.971529E-2,4E-1],"categories":[],"categories_nodes":[],"categories_segments":[],"categories_sizes":[],"default_left":[true,true,true,false,false,false,false],"id":9,"left_children":[1,3,5,-1,-1,-1,-1],"loss_changes":[4.7106815E2,2.4507645E1,3.984404E1,0E0,0E0,0E0,0E0],"parents":[2147483647,0,0,1,1,2,2],"right_children":[2,4,6,-1,-1,-1,-1],"split_conditions":[7.05E1,4.75E1,7.55E1,-1.4910972E-3,-4.0000003E-2,2.971529E-3,4.0000003E-2],"split_indices":[0,22,0,0,0,0,0],"split_type":[0,0,0,0,0,0,0],"sum_hessian":[1.7970796E3,8.6503845E2,9.320411E2,1.6534325E2,6.9969525E2,2.907643E2,6.412768E2],"tree_param":{"num_deleted":"0","num_feature":"23","num_nodes":"7","size_leaf_vector":"0"}},{"base_weights":[1.1305628E-2,-4E-1,4E-1,-4E-1,5.5554107E-2,-4E-1,4E-1],"categories":[],"categories_nodes":[],"categories_segments":[],"categories_sizes":[],"default_left":[true,true,true,false,false,false,false],"id":10,"left_children":[1,3,5,-1,-1,-1,-1],"loss_changes":[4.462811E2,5.3646698E1,2.1890137E1,0E0,0E0,0E0,0E0],"parents":[2147483647,0,0,1,1,2,2],"right_children":[2,4,6,-1,-1,-1,-1],"split_conditions":[7.45E1,5E-1,6.5E0,-4.0000003E-2,5.555411E-3,-4.0000003E-2,4.0000003E-2],"split_indices":[0,14,4,0,0,0,0],"split_type":[0,0,0,0,0,0,0],"sum_hessian":[1.7847941E3,1.08695E3,6.978441E2,8.2867755E2,2.5827243E2,3.1680124E1,6.66164E2],"tree_param":{"num_deleted":"0","num_feature":"23","num_nodes":"7","size_leaf_vector":"0"}},{"base_weights":[1.9018818E-2,-4E-1,4E-1,1.01574354E-1,-4E-1,-1.1138416E-1,4E-1],"categories":[],"categories_nodes":[],"categories_segments":[],"categories_sizes":[],"default_left":[true,true,true,false,false,false,false],"id":11,"left_children":[1,3,5,-1,-1,-1,-1],"loss_changes":[4.070839E2,2.906929E1,4.7259537E1,0E0,0E0,0E0,0E0],"parents":[2147483647,0,0,1,1,2,2],"right_children":[2,4,6,-1,-1,-1,-1],"split_conditions":[7.05E1,-7.5E0,6.05E1,1.0157435E-2,-4.0000003E-2,-1.1138416E-2,4.0000003E-2],"split_indices":[0,14,3,0,0,0,0],"split_type":[0,0,0,0,0,0,0],"sum_hessian":[1.782656E3,8.5863043E2,9.2402563E2,1.15184364E2,7.4344604E2,1.8032724E2,7.4369836E2],"tree_param":{"num_deleted":"0","num_feature":"23","num_nodes":"7","size_leaf_vector":"0"}},{"base_weights":[2.0382022E-2,-4E-1,4E-1,-5.307736E-2,-4E-1,-1.2966569E-1,4E-1],"categories":[],"categories_nodes":[],"categories_segments":[],"categories_sizes":[],"default_left":[true,true,true,false,false,false,false],"id":12,"left_children":[1,3,5,-1,-1,-1,-1],"loss_changes":[3.8840146E2,1.753328E1,8.246628E1,0E0,0E0,0E0,0E0],"parents":[2147483647,0,0,1,1,2,2],"right_children":[2,4,6,-1,-1,-1,-1],"split_conditions":[6.75E1,4.75E1,6.45E1,-5.307736E-3,-4.0000003E-2,-1.2966569E-2,4.0000003E-2],"split_indices":[0,22,3,0,0,0,0],"split_type":[0,0,0,0,0,0,0],"sum_hessian":[1.7685636E3,6.7491846E2,1.093645E3,1.4600877E2,5.289097E2,2.9351984E2,8.0012524E2],"tree_param":{"num_deleted":"0","num_feature":"23","num_nodes":"7","size_leaf_vector":"0"}},{"base_weights":[2.2138313E-3,-3.418505E-1,4E-1,-4E-1,1.22205906E-1,4E-1,-3.6600676E-1],"categories":[],"categories_nodes":[],"categories_segments":[],"categories_sizes":[],"default_left":[true,true,true,false,false,false,false],"id":13,"left_children":[1,3,5,-1,-1,-1,-1],"loss_changes":[3.4548752E2,7.147603E1,1.5863449E1,0E0,0E0,0E0,0E0],"parents":[2147483647,0,0,1,1,2,2],"right_children":[2,4,6,-1,-1,-1,-1],"split_conditions":[7.55E1,5E-1,5.05E1,-4.0000003E-2,1.222059E-2,4.0000003E-2,-3.6600675E-2],"split_indices":[0,14,17,0,0,0,0],"split_type":[0,0,0,0,0,0,0],"sum_hessian":[1.7544783E3,1.1317927E3,6.226856E2,8.560538E2,2.7573895E2,5.963775E2,2.6308064E1],"tree_param":{"num_deleted":"0","num_feature":"23","num_nodes":"7","size_leaf_vector":"0"}},{"base_weights":[1.8512795E-2,3.1563652E-1,-4E-1,-2.5325015E-1,4E-1,-4E-1,-3.7534868E-3],"categories":[],"categories_nodes":[],"categories_segments":[],"categories_sizes":[],"default_left":[true,true,true,false,false,false,false],"id":14,"left_children":[1,3,5,-1,-1,-1,-1],"loss_changes":[2.4873997E2,1.357768E2,2.775763E1,0E0,0E0,0E0,0E0],"parents":[2147483647,0,0,1,1,2,2],"right_children":[2,4,6,-1,-1,-1,-1],"split_conditions":[3.75E1,9.15E1,5E-1,-2.5325015E-2,4.0000003E-2,-4.0000003E-2,-3.753487E-4],"split_indices":[17,7,14,0,0,0,0],"split_type":[0,0,0,0,0,0,0],"sum_hessian":[1.7418112E3,1.0810542E3,6.6075696E2,3.3559702E2,7.454572E2,4.8395044E2,1.7680656E2],"tree_param":{"num_deleted":"0","num_feature":"23","num_nodes":"7","size_leaf_vector":"0"}},{"base_weights":[2.107427E-2,-4E-1,3.396506E-1,6.762536E-2,-4E-1,-1.23765E-1,4E-1],"categories":[],"categories_nodes":[],"categories_segments":[],"categories_sizes":[],"default_left":[true,true,true,false,false,false,false],"id":15,"left_children":[1,3,5,-1,-1,-1,-1],"loss_changes":[2.7832758E2,3.1759537E1,7.5010895E1,0E0,0E0,0E0,0E0],"parents":[2147483647,0,0,1,1,2,2],"right_children":[2,4,6,-1,-1,-1,-1],"split_conditions":[6.75E1,4.75E1,6.45E1,6.762536E-3,-4.0000003E-2,-1.23765E-2,4.0000003E-2],"split_indices":[0,22,3,0,0,0,0],"split_type":[0,0,0,0,0,0,0],"sum_hessian":[1.7325021E3,6.6265234E2,1.0698497E3,1.4496887E2,5.176835E2,2.8723337E2,7.8261633E2],"tree_param":{"num_deleted":"0","num_feature":"23","num_nodes":"7","size_leaf_vector":"0"}},{"base_weights":[1.4078265E-2,-2.6166695E-1,4E-1,-4E-1,-3.326469E-2,-4E-1,4E-1],"categories":[],"categories_nodes":[],"categories_segments":[],"categories_sizes":[],"default_left":[true,true,true,false,false,false,false],"id":16,"left_children":[1,3,5,-1,-1,-1,-1],"loss_changes":[2.7393222E2,6.460087E1,1.7277084E1,0E0,0E0,0E0,0E0],"parents":[2147483647,0,0,1,1,2,2],"right_children":[2,4,6,-1,-1,-1,-1],"split_conditions":[7.75E1,6.55E1,8.85E1,-4.0000003E-2,-3.3264689E-3,-4.0000003E-2,4.0000003E-2],"split_indices":[0,0,7,0,0,0,0],"split_type":[0,0,0,0,0,0,0],"sum_hessian":[1.7321316E3,1.2146539E3,5.1747766E2,5.6117737E2,6.5347656E2,1.274395E1,5.047337E2],"tree_param":{"num_deleted":"0","num_feature":"23","num_nodes":"7","size_leaf_vector":"0"}},{"base_weights":[2.3364363E-2,-2.439697E-1,4E-1,-4E-1,7.7997394E-2,-1.6746008E-3,4E-1],"categories":[],"categories_nodes":[],"categories_segments":[],"categories_sizes":[],"default_left":[true,true,true,false,false,false,false],"id":17,"left_children":[1,3,5,-1,-1,-1,-1],"loss_changes":[2.3560503E2,7.21356E1,1.3203201E1,0E0,0E0,0E0,0E0],"parents":[2147483647,0,0,1,1,2,2],"right_children":[2,4,6,-1,-1,-1,-1],"split_conditions":[7.65E1,2.25E1,1.325E2,-4.0000003E-2,7.7997395E-3,-1.6746008E-4,4.0000003E-2],"split_indices":[0,4,1,0,0,0,0],"split_type":[0,0,0,0,0,0,0],"sum_hessian":[1.7184526E3,1.1556927E3,5.6275995E2,7.170257E2,4.3866708E2,8.182502E1,4.809349E2],"tree_param":{"num_deleted":"0","num_feature":"23","num_nodes":"7","size_leaf_vector":"0"}},{"base_weights":[1.6043482E-2,-4E-1,2.9052565E-1,1.001866E-1,-4E-1,-1.2355932E-1,4E-1],"categories":[],"categories_nodes":[],"categories_segments":[],"categories_sizes":[],"default_left":[true,true,true,false,false,false,false],"id":18,"left_children":[1,3,5,-1,-1,-1,-1],"loss_changes":[2.1008124E2,3.5623215E1,6.58554E1,0E0,0E0,0E0,0E0],"parents":[2147483647,0,0,1,1,2,2],"right_children":[2,4,6,-1,-1,-1,-1],"split_conditions":[6.75E1,4.75E1,6.45E1,1.0018661E-2,-4.0000003E-2,-1.2355932E-2,4.0000003E-2],"split_indices":[0,22,3,0,0,0,0],"split_type":[0,0,0,0,0,0,0],"sum_hessian":[1.7019084E3,6.4381836E2,1.0580901E3,1.4202615E2,5.017922E2,2.8613635E2,7.719538E2],"tree_param":{"num_deleted":"0","num_feature":"23","num_nodes":"7","size_leaf_vector":"0"}},{"base_weights":[2.8609708E-2,-2.1078697E-1,4E-1,-3.2746118E-2,-4E-1,4E-1,-4E-1],"categories":[],"categories_nodes":[],"categories_segments":[],"categories_sizes":[],"default_left":[true,true,true,false,false,false,false],"id":19,"left_children":[1,3,5,-1,-1,-1,-1],"loss_changes":[1.9489314E2,6.541142E1,1.7105545E1,0E0,0E0,0E0,0E0],"parents":[2147483647,0,0,1,1,2,2],"right_children":[2,4,6,-1,-1,-1,-1],"split_conditions":[7.65E1,5.75E1,5.05E1,-3.274612E-3,-4.0000003E-2,4.0000003E-2,-4.0000003E-2],"split_indices":[0,17,17,0,0,0,0],"split_type":[0,0,0,0,0,0,0],"sum_hessian":[1.6919973E3,1.147793E3,5.4420435E2,7.901005E2,3.5769244E2,5.248052E2,1.9399166E1],"tree_param":{"num_deleted":"0","num_feature":"23","num_nodes":"7","size_leaf_vector":"0"}},{"base_weights":[1.4790528E-2,-2.0691434E-1,4E-1,-3.437055E-1,1.9912945E-1,-4E-1,4E-1],"categories":[],"categories_nodes":[],"categories_segments":[],"categories_sizes":[],"default_left":[true,true,true,false,false,false,false],"id":20,"left_children":[1,3,5,-1,-1,-1,-1],"loss_changes":[1.869315E2,6.604528E1,1.9294434E1,0E0,0E0,0E0,0E0],"parents":[2147483647,0,0,1,1,2,2],"right_children":[2,4,6,-1,-1,-1,-1],"split_conditions":[7.75E1,5E-1,9.15E1,-3.4370553E-2,1.9912945E-2,-4.0000003E-2,4.0000003E-2],"split_indices":[0,14,7,0,0,0,0],"split_type":[0,0,0,0,0,0,0],"sum_hessian":[1.6867982E3,1.1868474E3,4.9995074E2,8.878838E2,2.9896362E2,2.3519762E1,4.76431E2],"tree_param":{"num_deleted":"0","num_feature":"23","num_nodes":"7","size_leaf_vector":"0"}},{"base_weights":[1.2904165E-2,-1.8619189E-1,4E-1,2.9887559E-2,-4E-1,4E-1,-2.2492601E-1],"categories":[],"categories_nodes":[],"categories_segments":[],"categories_sizes":[],"default_left":[true,true,true,false,false,false,false],"id":21,"left_children":[1,3,5,-1,-1,-1,-1],"loss_changes":[1.5481374E2,6.638641E1,1.8341812E1,0E0,0E0,0E0,0E0],"parents":[2147483647,0,0,1,1,2,2],"right_children":[2,4,6,-1,-1,-1,-1],"split_conditions":[7.75E1,7.35E1,5.35E1,2.988756E-3,-4.0000003E-2,4.0000003E-2,-2.24926E-2],"split_indices":[0,22,13,0,0,0,0],"split_type":[0,0,0,0,0,0,0],"sum_hessian":[1.667063E3,1.1773964E3,4.8966672E2,6.505874E2,5.268089E2,4.432909E2,4.6375824E1],"tree_param":{"num_deleted":"0","num_feature":"23","num_nodes":"7","size_leaf_vector":"0"}},{"base_weights":[3.884674E-2,1.8418203E-1,-4E-1,-5.795006E-2,4E-1,-4E-1,2.593839E-1],"categories":[],"categories_nodes":[],"categories_segments":[],"categories_sizes":[],"default_left":[true,true,true,false,false,false,false],"id":22,"left_children":[1,3,5,-1,-1,-1,-1],"loss_changes":[1.3408691E2,7.707724E1,2.7707443E0,0E0,0E0,0E0,0E0],"parents":[2147483647,0,0,1,1,2,2],"right_children":[2,4,6,-1,-1,-1,-1],"split_conditions":[5.95E1,7.45E1,4.01E2,-5.795006E-3,4.0000003E-2,-4.0000003E-2,2.593839E-2],"split_indices":[17,3,1,0,0,0,0],"split_type":[0,0,0,0,0,0,0],"sum_hessian":[1.66387E3,1.3319039E3,3.3196603E2,6.633219E2,6.6858203E2,3.2622537E2,5.7406645E0],"tree_param":{"num_deleted":"0","num_feature":"23","num_nodes":"7","size_leaf_vector":"0"}},{"base_weights":[1.085592E-2,-1.3742414E-1,4E-1,-4E-1,2.126619E-2,-4E-1,4E-1],"categories":[],"categories_nodes":[],"categories_segments":[],"categories_sizes":[],"default_left":[true,true,true,false,false,false,false],"id":23,"left_children":[1,3,5,-1,-1,-1,-1],"loss_changes":[1.26761986E2,5.886734E1,1.044413E1,0E0,0E0,0E0,0E0],"parents":[2147483647,0,0,1,1,2,2],"right_children":[2,4,6,-1,-1,-1,-1],"split_conditions":[8.05E1,6.45E1,-4E0,-4.0000003E-2,2.126619E-3,-4.0000003E-2,4.0000003E-2],"split_indices":[0,0,21,0,0,0,0],"split_type":[0,0,0,0,0,0,0],"sum_hessian":[1.6531373E3,1.3057205E3,3.4741687E2,4.6643973E2,8.3928076E2,1.2006885E1,3.3541E2],"tree_param":{"num_deleted":"0","num_feature":"23","num_nodes":"7","size_leaf_vector":"0"}},{"base_weights":[8.49116E-3,-1.4209603E-1,4E-1,-2.7180704E-1,2.1860433E-1,-4E-1,4E-1],"categories":[],"categories_nodes":[],"categories_segments":[],"categories_sizes":[],"default_left":[true,true,true,false,false,false,false],"id":24,"left_children":[1,3,5,-1,-1,-1,-1],"loss_changes":[1.1737204E2,5.9057056E1,1.4689972E1,0E0,0E0,0E0,0E0],"parents":[2147483647,0,0,1,1,2,2],"right_children":[2,4,6,-1,-1,-1,-1],"split_conditions":[7.95E1,5E-1,9.15E1,-2.7180705E-2,2.1860434E-2,-4.0000003E-2,4.0000003E-2],"split_indices":[0,14,7,0,0,0,0],"split_type":[0,0,0,0,0,0,0],"sum_hessian":[1.649794E3,1.2599886E3,3.8980524E2,9.2691016E2,3.3307855E2,1.3147499E1,3.7665775E2],"tree_param":{"num_deleted":"0","num_feature":"23","num_nodes":"7","size_leaf_vector":"0"}},{"base_weights":[3.2962658E-2,2.2884382E-1,-2.8696427E-1,-7.646484E-2,4E-1,-4E-1,-1.0408583E-2],"categories":[],"categories_nodes":[],"categories_segments":[],"categories_sizes":[],"default_left":[true,true,true,false,false,false,false],"id":25,"left_children":[1,3,5,-1,-1,-1,-1],"loss_changes":[1.0291885E2,7.102373E1,2.4420616E1,0E0,0E0,0E0,0E0],"parents":[2147483647,0,0,1,1,2,2],"right_children":[2,4,6,-1,-1,-1,-1],"split_conditions":[3.75E1,9.55E1,8.35E1,-7.646484E-3,4.0000003E-2,-4.0000003E-2,-1.0408583E-3],"split_indices":[17,7,3,0,0,0,0],"split_type":[0,0,0,0,0,0,0],"sum_hessian":[1.640248E3,1.0175307E3,6.227173E2,4.4398975E2,5.7354095E2,4.0926483E2,2.1345247E2],"tree_param":{"num_deleted":"0","num_feature":"23","num_nodes":"7","size_leaf_vector":"0"}},{"base_weights":[3.4796037E-2,-1.2062516E-1,4E-1,2.56766E-2,-4E-1,-2.2841513E-1,4E-1],"categories":[],"categories_nodes":[],"categories_segments":[],"categories_sizes":[],"default_left":[true,true,true,false,false,false,false],"id":26,"left_children":[1,3,5,-1,-1,-1,-1],"loss_changes":[9.819786E1,5.3889885E1,1.9906944E1,0E0,0E0,0E0,0E0],"parents":[2147483647,0,0,1,1,2,2],"right_children":[2,4,6,-1,-1,-1,-1],"split_conditions":[7.75E1,8.05E1,9.5E0,2.56766E-3,-4.0000003E-2,-2.2841513E-2,4.0000003E-2],"split_indices":[0,22,4,0,0,0,0],"split_type":[0,0,0,0,0,0,0],"sum_hessian":[1.6178004E3,1.1584281E3,4.5937225E2,7.966994E2,3.6172867E2,4.9814552E1,4.095577E2],"tree_param":{"num_deleted":"0","num_feature":"23","num_nodes":"7","size_leaf_vector":"0"}},{"base_weights":[2.2286022E-2,1.3567933E-1,-4E-1,-1.09049566E-1,3.368113E-1,-4E-1,-1.5429316E-1],"categories":[],"categories_nodes":[],"categories_segments":[],"categories_sizes":[],"default_left":[true,true,true,false,false,false,false],"id":27,"left_children":[1,3,5,-1,-1,-1,-1],"loss_changes":[8.461696E1,6.356135E1,5.994522E0,0E0,0E0,0E0,0E0],"parents":[2147483647,0,0,1,1,2,2],"right_children":[2,4,6,-1,-1,-1,-1],"split_conditions":[5.95E1,9.55E1,8.25E1,-1.0904957E-2,3.3681132E-2,-4.0000003E-2,-1.5429317E-2],"split_indices":[17,7,3,0,0,0,0],"split_type":[0,0,0,0,0,0,0],"sum_hessian":[1.6002864E3,1.2895527E3,3.107337E2,5.819357E2,7.07617E2,2.0979027E2,1.0094342E2],"tree_param":{"num_deleted":"0","num_feature":"23","num_nodes":"7","size_leaf_vector":"0"}},{"base_weights":[2.2258472E-2,-8.483188E-2,4E-1,-2.0405571E-1,2.3162805E-1,-4E-1,4E-1],"categories":[],"categories_nodes":[],"categories_segments":[],"categories_sizes":[],"default_left":[true,true,true,false,false,false,false],"id":28,"left_children":[1,3,5,-1,-1,-1,-1],"loss_changes":[8.177677E1,4.999162E1,8.161537E0,0E0,0E0,0E0,0E0],"parents":[2147483647,0,0,1,1,2,2],"right_children":[2,4,6,-1,-1,-1,-1],"split_conditions":[8.15E1,5E-1,-4E0,-2.0405572E-2,2.3162805E-2,-4.0000003E-2,4.0000003E-2],"split_indices":[0,14,21,0,0,0,0],"split_type":[0,0,0,0,0,0,0],"sum_hessian":[1.6054729E3,1.3227457E3,2.827272E2,9.610375E2,3.6170825E2,1.1189132E1,2.7153806E2],"tree_param":{"num_deleted":"0","num_feature":"23","num_nodes":"7","size_leaf_vector":"0"}},{"base_weights":[2.3137696E-2,1.8843874E-1,-2.6239643E-1,-5.9625816E-2,3.8492998E-1,-4E-1,8.4183104E-2],"categories":[],"categories_nodes":[],"categories_segments":[],"categories_sizes":[],"default_left":[true,true,true,false,false,false,false],"id":29,"left_children":[1,3,5,-1,-1,-1,-1],"loss_changes":[7.525392E1,4.9239212E1,3.8448586E1,0E0,0E0,0E0,0E0],"parents":[2147483647,0,0,1,1,2,2],"right_children":[2,4,6,-1,-1,-1,-1],"split_conditions":[7.45E1,9.55E1,8.05E1,-5.962582E-3,3.8493E-2,-4.0000003E-2,8.41831E-3],"split_indices":[22,7,3,0,0,0,0],"split_type":[0,0,0,0,0,0,0],"sum_hessian":[1.5923458E3,1.00871936E3,5.8362646E2,4.4615634E2,5.6256305E2,3.7271823E2,2.1090825E2],"tree_param":{"num_deleted":"0","num_feature":"23","num_nodes":"7","size_leaf_vector":"0"}},{"base_weights":[1.5370947E-2,-1.062968E-1,4E-1,4E-1,-2.1417248E-1,-3.6608225E-1,4E-1],"categories":[],"categories_nodes":[],"categories_segments":[],"categories_sizes":[],"default_left":[true,true,true,false,false,false,false],"id":30,"left_children":[1,3,5,-1,-1,-1,-1],"loss_changes":[7.833274E1,8.286434E1,3.614016E1,0E0,0E0,0E0,0E0],"parents":[2147483647,0,0,1,1,2,2],"right_children":[2,4,6,-1,-1,-1,-1],"split_conditions":[1.5E0,-7.5E0,6.45E1,4.0000003E-2,-2.1417249E-2,-3.6608227E-2,4.0000003E-2],"split_indices":[14,14,0,0,0,0,0],"split_type":[0,0,0,0,0,0,0],"sum_hessian":[1.5753904E3,1.2149923E3,3.6039804E2,1.6954666E2,1.0454457E3,6.085257E1,2.9954547E2],"tree_param":{"num_deleted":"0","num_feature":"23","num_nodes":"7","size_leaf_vector":"0"}},{"base_weights":[2.0379724E-2,-2.8925312E-1,1.429556E-1,2.157005E-1,-4E-1,-2.4337529E-1,2.6622805E-1],"categories":[],"categories_nodes":[],"categories_segments":[],"categories_sizes":[],"default_left":[true,true,true,false,false,false,false],"id":31,"left_children":[1,3,5,-1,-1,-1,-1],"loss_changes":[6.0107227E1,3.4305294E1,5.4091824E1,0E0,0E0,0E0,0E0],"parents":[2147483647,0,0,1,1,2,2],"right_children":[2,4,6,-1,-1,-1,-1],"split_conditions":[6.45E1,2.6E1,1.35E1,2.1570051E-2,-4.0000003E-2,-2.4337528E-2,2.6622806E-2],"split_indices":[0,22,4,0,0,0,0],"split_type":[0,0,0,0,0,0,0],"sum_hessian":[1.5816171E3,4.4816638E2,1.1334507E3,1.04448715E2,3.4371765E2,2.739447E2,8.59506E2],"tree_param":{"num_deleted":"0","num_feature":"23","num_nodes":"7","size_leaf_vector":"0"}},{"base_weights":[2.4150275E-2,1.1776057E-1,-4E-1,-2.1692166E-2,4E-1,-4E-1,-1.3594103E-1],"categories":[],"categories_nodes":[],"categories_segments":[],"categories_sizes":[],"default_left":[true,true,true,false,false,false,false],"id":32,"left_children":[1,3,5,-1,-1,-1,-1],"loss_changes":[6.512379E1,5.8251774E1,5.8931847E0,0E0,0E0,0E0,0E0],"parents":[2147483647,0,0,1,1,2,2],"right_children":[2,4,6,-1,-1,-1,-1],"split_conditions":[6.25E1,5E-1,8.35E1,-2.1692168E-3,4.0000003E-2,-4.0000003E-2,-1.3594103E-2],"split_indices":[17,14,3,0,0,0,0],"split_type":[0,0,0,0,0,0,0],"sum_hessian":[1.5744323E3,1.2997859E3,2.7464633E2,9.1018726E2,3.895987E2,1.8883386E2,8.581247E1],"tree_param":{"num_deleted":"0","num_feature":"23","num_nodes":"7","size_leaf_vector":"0"}},{"base_weights":[2.235356E-2,-5.482265E-2,4E-1,4E-1,-1.1759978E-1,-4E-1,4E-1],"categories":[],"categories_nodes":[],"categories_segments":[],"categories_sizes":[],"default_left":[true,true,true,false,false,false,false],"id":33,"left_children":[1,3,5,-1,-1,-1,-1],"loss_changes":[5.652628E1,4.5471085E1,8.665356E0,0E0,0E0,0E0,0E0],"parents":[2147483647,0,0,1,1,2,2],"right_children":[2,4,6,-1,-1,-1,-1],"split_conditions":[8.35E1,-7.5E0,6.5E0,4.0000003E-2,-1.1759978E-2,-4.0000003E-2,4.0000003E-2],"split_indices":[0,14,4,0,0,0,0],"split_type":[0,0,0,0,0,0,0],"sum_hessian":[1.5573903E3,1.3474196E3,2.0997078E2,1.3692824E2,1.2104913E3,1.2408261E1,1.9756252E2],"tree_param":{"num_deleted":"0","num_feature":"23","num_nodes":"7","size_leaf_vector":"0"}},{"base_weights":[1.6184283E-3,-1.7831877E-1,2.0854491E-1,-6.639495E-2,-4E-1,-1.9222468E-1,3.5692477E-1],"categories":[],"categories_nodes":[],"categories_segments":[],"categories_sizes":[],"default_left":[true,true,true,false,false,false,false],"id":34,"left_children":[1,3,5,-1,-1,-1,-1],"loss_changes":[5.7887165E1,2.707055E1,4.3069336E1,0E0,0E0,0E0,0E0],"parents":[2147483647,0,0,1,1,2,2],"right_children":[2,4,6,-1,-1,-1,-1],"split_conditions":[7.55E1,4.55E1,8.95E1,-6.639495E-3,-4.0000003E-2,-1.9222468E-2,3.569248E-2],"split_indices":[3,13,7,0,0,0,0],"split_type":[0,0,0,0,0,0,0],"sum_hessian":[1.5526965E3,8.305836E2,7.2211285E2,6.108724E2,2.1971124E2,1.9503464E2,5.2707825E2],"tree_param":{"num_deleted":"0","num_feature":"23","num_nodes":"7","size_leaf_vector":"0"}},{"base_weights":[7.953912E-3,-2.517633E-1,1.2460842E-1,1.03562355E-1,-4E-1,-4E-1,1.8228531E-1],"categories":[],"categories_nodes":[],"categories_segments":[],"categories_sizes":[],"default_left":[true,true,true,false,false,false,false],"id":35,"left_children":[1,3,5,-1,-1,-1,-1],"loss_changes":[4.694295E1,2.799992E1,3.551656E1,0E0,0E0,0E0,0E0],"parents":[2147483647,0,0,1,1,2,2],"right_children":[2,4,6,-1,-1,-1,-1],"split_conditions":[1.345E2,4.9E1,5.95E1,1.0356235E-2,-4.0000003E-2,-4.0000003E-2,1.822853E-2],"split_indices":[1,22,0,0,0,0,0],"split_type":[0,0,0,0,0,0,0],"sum_hessian":[1.5473809E3,4.7924387E2,1.068137E3,1.5166826E2,3.275756E2,9.6088745E1,9.720482E2],"tree_param":{"num_deleted":"0","num_feature":"23","num_nodes":"7","size_leaf_vector":"0"}},{"base_weights":[5.658884E-3,9.4608255E-2,-3.522694E-1,1.7982338E-1,-2.4584173E-1,-4E-1,-1.163819E-1],"categories":[],"categories_nodes":[],"categories_segments":[],"categories_sizes":[],"default_left":[true,true,true,false,false,false,false],"id":36,"left_children":[1,3,5,-1,-1,-1,-1],"loss_changes":[4.913764E1,3.590627E1,9.713585E0,0E0,0E0,0E0,0E0],"parents":[2147483647,0,0,1,1,2,2],"right_children":[2,4,6,-1,-1,-1,-1],"split_conditions":[5.85E1,4.65E1,2.05E1,1.798234E-2,-2.4584172E-2,-4.0000003E-2,-1.163819E-2],"split_indices":[17,13,4,0,0,0,0],"split_type":[0,0,0,0,0,0,0],"sum_hessian":[1.5413422E3,1.2351329E3,3.062093E2,9.882454E2,2.4688747E2,1.7576257E2,1.3044673E2],"tree_param":{"num_deleted":"0","num_feature":"23","num_nodes":"7","size_leaf_vector":"0"}},{"base_weights":[4.839206E-3,-5.9517104E-2,4E-1,-2.4023052E-1,1.2641598E-1,-4E-1,4E-1],"categories":[],"categories_nodes":[],"categories_segments":[],"categories_sizes":[],"default_left":[true,true,true,false,false,false,false],"id":37,"left_children":[1,3,5,-1,-1,-1,-1],"loss_changes":[4.2603542E1,4.4937027E1,9.048225E0,0E0,0E0,0E0,0E0],"parents":[2147483647,0,0,1,1,2,2],"right_children":[2,4,6,-1,-1,-1,-1],"split_conditions":[8.35E1,1.95E1,2E0,-2.4023052E-2,1.26415985E-2,-4.0000003E-2,4.0000003E-2],"split_indices":[0,4,22,0,0,0,0],"split_type":[0,0,0,0,0,0,0],"sum_hessian":[1.532396E3,1.3354835E3,1.969125E2,6.770998E2,6.583837E2,4.4916E0,1.9242091E2],"tree_param":{"num_deleted":"0","num_feature":"23","num_nodes":"7","size_leaf_vector":"0"}},{"base_weights":[1.3383342E-2,-5.1042814E-2,4E-1,-2.4741885E-1,8.3273314E-2,-3.6793733E-1,4E-1],"categories":[],"categories_nodes":[],"categories_segments":[],"categories_sizes":[],"default_left":[true,true,true,false,false,false,false],"id":38,"left_children":[1,3,5,-1,-1,-1,-1],"loss_changes":[4.3880024E1,3.524392E1,9.131222E0,0E0,0E0,0E0,0E0],"parents":[2147483647,0,0,1,1,2,2],"right_children":[2,4,6,-1,-1,-1,-1],"split_conditions":[8.35E1,1.65E1,1.24E2,-2.4741886E-2,8.327331E-3,-3.6793735E-2,4.0000003E-2],"split_indices":[0,4,1,0,0,0,0],"split_type":[0,0,0,0,0,0,0],"sum_hessian":[1.5219204E3,1.3344069E3,1.8751355E2,5.4164954E2,7.9275726E2,1.4755112E1,1.7275844E2],"tree_param":{"num_deleted":"0","num_feature":"23","num_nodes":"7","size_leaf_vector":"0"}},{"base_weights":[1.1736925E-2,-7.877099E-2,3.2864013E-1,4E-1,-1.6213635E-1,-4E-1,4E-1],"categories":[],"categories_nodes":[],"categories_segments":[],"categories_sizes":[],"default_left":[true,true,true,false,false,false,false],"id":39,"left_children":[1,3,5,-1,-1,-1,-1],"loss_changes":[4.3605347E1,4.998257E1,2.4935589E1,0E0,0E0,0E0,0E0],"parents":[2147483647,0,0,1,1,2,2],"right_children":[2,4,6,-1,-1,-1,-1],"split_conditions":[1.5E0,-7.5E0,7.55E1,4.0000003E-2,-1.6213635E-2,-4.0000003E-2,4.0000003E-2],"split_indices":[14,14,7,0,0,0,0],"split_type":[0,0,0,0,0,0,0],"sum_hessian":[1.518388E3,1.1816569E3,3.3673108E2,1.6608751E2,1.01556934E3,2.1741228E1,3.1498984E2],"tree_param":{"num_deleted":"0","num_feature":"23","num_nodes":"7","size_leaf_vector":"0"}},{"base_weights":[2.448134E-3,-2.5908235E-1,9.047638E-2,1.9894491E-1,-4E-1,-2.6437087E-2,3.3972928E-1],"categories":[],"categories_nodes":[],"categories_segments":[],"categories_sizes":[],"default_left":[true,true,true,false,false,false,false],"id":40,"left_children":[1,3,5,-1,-1,-1,-1],"loss_changes":[3.5039806E1,2.9831749E1,3.319204E1,0E0,0E0,0E0,0E0],"parents":[2147483647,0,0,1,1,2,2],"right_children":[2,4,6,-1,-1,-1,-1],"split_conditions":[6.35E1,2.6E1,5E-1,1.9894492E-2,-4.0000003E-2,-2.6437088E-3,3.397293E-2],"split_indices":[0,22,14,0,0,0,0],"split_type":[0,0,0,0,0,0,0],"sum_hessian":[1.5199912E3,3.8228513E2,1.137706E3,1.03820946E2,2.7846417E2,7.750558E2,3.626503E2],"tree_param":{"num_deleted":"0","num_feature":"23","num_nodes":"7","size_leaf_vector":"0"}},{"base_weights":[1.1433811E-2,-6.90927E-2,2.955377E-1,4E-1,-1.4861636E-1,-6.601776E-2,4E-1],"categories":[],"categories_nodes":[],"categories_segments":[],"categories_sizes":[],"default_left":[true,true,true,false,false,false,false],"id":41,"left_children":[1,3,5,-1,-1,-1,-1],"loss_changes":[3.4741455E1,4.548952E1,2.4980331E1,0E0,0E0,0E0,0E0],"parents":[2147483647,0,0,1,1,2,2],"right_children":[2,4,6,-1,-1,-1,-1],"split_conditions":[1.5E0,-7.5E0,9.55E1,4.0000003E-2,-1.4861636E-2,-6.6017765E-3,4.0000003E-2],"split_indices":[14,14,7,0,0,0,0],"split_type":[0,0,0,0,0,0,0],"sum_hessian":[1.5166672E3,1.1823098E3,3.3435748E2,1.6651627E2,1.0157935E3,1.316129E2,2.0274458E2],"tree_param":{"num_deleted":"0","num_feature":"23","num_nodes":"7","size_leaf_vector":"0"}},{"base_weights":[2.0664632E-2,-2.0514588E-1,1.2296841E-1,1.7993547E-2,-4E-1,-1.4510858E-1,2.1825162E-1],"categories":[],"categories_nodes":[],"categories_segments":[],"categories_sizes":[],"default_left":[true,true,true,false,false,false,false],"id":42,"left_children":[1,3,5,-1,-1,-1,-1],"loss_changes":[3.476077E1,2.4078161E1,2.6479832E1,0E0,0E0,0E0,0E0],"parents":[2147483647,0,0,1,1,2,2],"right_children":[2,4,6,-1,-1,-1,-1],"split_conditions":[1.345E2,2.95E1,5.5E0,1.7993547E-3,-4.0000003E-2,-1.4510858E-2,2.1825163E-2],"split_indices":[1,13,9,0,0,0,0],"split_type":[0,0,0,0,0,0,0],"sum_hessian":[1.5026205E3,4.681933E2,1.0344271E3,2.3968732E2,2.2850598E2,2.711186E2,7.633086E2],"tree_param":{"num_deleted":"0","num_feature":"23","num_nodes":"7","size_leaf_vector":"0"}},{"base_weights":[5.845851E-3,-1.2915218E-1,1.5899439E-1,-3.6351424E-2,-3.8418773E-1,-2.464665E-1,2.50627E-1],"categories":[],"categories_nodes":[],"categories_segments":[],"categories_sizes":[],"default_left":[true,true,true,false,false,false,false],"id":43,"left_children":[1,3,5,-1,-1,-1,-1],"loss_changes":[3.1257814E1,1.9004822E1,2.6377823E1,0E0,0E0,0E0,0E0],"parents":[2147483647,0,0,1,1,2,2],"right_children":[2,4,6,-1,-1,-1,-1],"split_conditions":[7.55E1,8.05E1,1.25E1,-3.6351425E-3,-3.8418774E-2,-2.4646651E-2,2.50627E-2],"split_indices":[3,22,4,0,0,0,0],"split_type":[0,0,0,0,0,0,0],"sum_hessian":[1.5098901E3,8.0258276E2,7.0730743E2,5.8929596E2,2.1328682E2,1.300713E2,5.7723615E2],"tree_param":{"num_deleted":"0","num_feature":"23","num_nodes":"7","size_leaf_vector":"0"}},{"base_weights":[-1.2636618E-3,4.2552806E-2,-4E-1,-3.778051E-2,3.2590854E-1,2.1398541E-1,-4E-1],"categories":[],"categories_nodes":[],"categories_segments":[],"categories_sizes":[],"default_left":[true,true,true,false,false,false,false],"id":44,"left_children":[1,3,5,-1,-1,-1,-1],"loss_changes":[3.165644E1,3.1316694E1,2.4204273E0,0E0,0E0,0E0,0E0],"parents":[2147483647,0,0,1,1,2,2],"right_children":[2,4,6,-1,-1,-1,-1],"split_conditions":[7.85E1,1.5E0,6.05E1,-3.778051E-3,3.2590855E-2,2.1398542E-2,-4.0000003E-2],"split_indices":[17,14,7,0,0,0,0],"split_type":[0,0,0,0,0,0,0],"sum_hessian":[1.4929731E3,1.3742368E3,1.1873638E2,1.0713643E3,3.0287253E2,5.8450317E0,1.1289135E2],"tree_param":{"num_deleted":"0","num_feature":"23","num_nodes":"7","size_leaf_vector":"0"}},{"base_weights":[-3.195855E-3,-8.8421494E-2,2.108683E-1,3.3501408E-1,-1.6700323E-1,-4E-1,2.7029377E-1],"categories":[],"categories_nodes":[],"categories_segments":[],"categories_sizes":[],"default_left":[true,true,true,false,false,false,false],"id":45,"left_children":[1,3,5,-1,-1,-1,-1],"loss_changes":[2.7017303E1,3.529936E1,1.9972708E1,0E0,0E0,0E0,0E0],"parents":[2147483647,0,0,1,1,2,2],"right_children":[2,4,6,-1,-1,-1,-1],"split_conditions":[5E-1,-7.5E0,7.55E1,3.350141E-2,-1.6700324E-2,-4.0000003E-2,2.7029378E-2],"split_indices":[14,14,7,0,0,0,0],"split_type":[0,0,0,0,0,0,0],"sum_hessian":[1.478885E3,1.0581781E3,4.2070688E2,1.6512785E2,8.930503E2,2.6649328E1,3.9405756E2],"tree_param":{"num_deleted":"0","num_feature":"23","num_nodes":"7","size_leaf_vector":"0"}},{"base_weights":[-7.526155E-3,-1.1612752E-1,1.6670497E-1,-4.1404482E-2,-3.4752083E-1,-4E-1,2.4025555E-1],"categories":[],"categories_nodes":[],"categories_segments":[],"categories_sizes":[],"default_left":[true,true,true,false,false,false,false],"id":46,"left_children":[1,3,5,-1,-1,-1,-1],"loss_changes":[2.8077194E1,1.57899E1,2.5251488E1,0E0,0E0,0E0,0E0],"parents":[2147483647,0,0,1,1,2,2],"right_children":[2,4,6,-1,-1,-1,-1],"split_conditions":[8.15E1,4.65E1,9.5E0,-4.1404483E-3,-3.4752082E-2,-4.0000003E-2,2.4025556E-2],"split_indices":[3,13,4,0,0,0,0],"split_type":[0,0,0,0,0,0,0],"sum_hessian":[1.481836E3,9.1304956E2,5.6878656E2,6.910652E2,2.2198436E2,6.1401096E1,5.0738547E2],"tree_param":{"num_deleted":"0","num_feature":"23","num_nodes":"7","size_leaf_vector":"0"}},{"base_weights":[1.3397895E-2,5.5833418E-2,-4E-1,-8.13061E-2,1.7664713E-1,-4E-1,2.0083021E-2],"categories":[],"categories_nodes":[],"categories_segments":[],"categories_sizes":[],"default_left":[true,true,true,false,false,false,false],"id":47,"left_children":[1,3,5,-1,-1,-1,-1],"loss_changes":[3.0544922E1,2.2501287E1,2.1409416E0,0E0,0E0,0E0,0E0],"parents":[2147483647,0,0,1,1,2,2],"right_children":[2,4,6,-1,-1,-1,-1],"split_conditions":[7.85E1,1.85E1,4.15E1,-8.13061E-3,1.7664714E-2,-4.0000003E-2,2.0083021E-3],"split_indices":[17,4,8,0,0,0,0],"split_type":[0,0,0,0,0,0,0],"sum_hessian":[1.4694956E3,1.3562233E3,1.1327235E2,6.353472E2,7.2087604E2,1.01233635E2,1.20387125E1],"tree_param":{"num_deleted":"0","num_feature":"23","num_nodes":"7","size_leaf_vector":"0"}},{"base_weights":[-8.888964E-3,9.190563E-2,-1.7530242E-1,-5.893571E-2,2.2125788E-1,-3.7562644E-1,-5.7911783E-2],"categories":[],"categories_nodes":[],"categories_segments":[],"categories_sizes":[],"default_left":[true,true,true,false,false,false,false],"id":48,"left_children":[1,3,5,-1,-1,-1,-1],"loss_changes":[2.4686184E1,1.789804E1,1.3032984E1,0E0,0E0,0E0,0E0],"parents":[2147483647,0,0,1,1,2,2],"right_children":[2,4,6,-1,-1,-1,-1],"split_conditions":[3.75E1,9.55E1,1.75E1,-5.893571E-3,2.2125788E-2,-3.7562646E-2,-5.7911784E-3],"split_indices":[17,7,11,0,0,0,0],"split_type":[0,0,0,0,0,0,0],"sum_hessian":[1.4697699E3,9.156311E2,5.5413885E2,4.2295526E2,4.926758E2,2.039329E2,3.5020593E2],"tree_param":{"num_deleted":"0","num_feature":"23","num_nodes":"7","size_leaf_vector":"0"}},{"base_weights":[-3.2155553E-3,-1.0269394E-1,1.5599729E-1,2.7638677E-1,-1.7701757E-1,-2.9854512E-1,2.2886018E-1],"categories":[],"categories_nodes":[],"categories_segments":[],"categories_sizes":[],"default_left":[true,true,true,false,false,false,false],"id":49,"left_children":[1,3,5,-1,-1,-1,-1],"loss_changes":[2.3272396E1,2.5527773E1,1.8782389E1,0E0,0E0,0E0,0E0],"parents":[2147483647,0,0,1,1,2,2],"right_children":[2,4,6,-1,-1,-1,-1],"split_conditions":[2.25E1,-7.5E0,6.15E1,2.7638678E-2,-1.7701758E-2,-2.9854512E-2,2.288602E-2],"split_indices":[4,14,0,0,0,0,0],"split_type":[0,0,0,0,0,0,0],"sum_hessian":[1.4673689E3,9.033182E2,5.6405066E2,1.4762943E2,7.556888E2,7.7497665E1,4.8655298E2],"tree_param":{"num_deleted":"0","num_feature":"23","num_nodes":"7","size_leaf_vector":"0"}},{"base_weights":[-9.912206E-3,-2.6550728E-1,7.5489774E-2,-7.509541E-2,-4E-1,4E-1,3.5608336E-2],"categories":[],"categories_nodes":[],"categories_segments":[],"categories_sizes":[],"default_left":[true,true,true,false,false,false,false],"id":50,"left_children":[1,3,5,-1,-1,-1,-1],"loss_changes":[3.2027824E1,1.3426315E1,2.2120592E1,0E0,0E0,0E0,0E0],"parents":[2147483647,0,0,1,1,2,2],"right_children":[2,4,6,-1,-1,-1,-1],"split_conditions":[6.35E1,5E-1,-7.5E0,-7.5095408E-3,-4.0000003E-2,4.0000003E-2,3.5608336E-3],"split_indices":[0,16,14,0,0,0,0],"split_type":[0,0,0,0,0,0,0],"sum_hessian":[1.4653414E3,3.6646344E2,1.098878E3,1.906685E2,1.7579495E2,5.9781734E1,1.0390963E3],"tree_param":{"num_deleted":"0","num_feature":"23","num_nodes":"7","size_leaf_vector":"0"}},{"base_weights":[-4.415531E-3,-1.3067575E-1,1.1162527E-1,1.5510428E-1,-2.0343152E-1,3.6269277E-2,4E-1],"categories":[],"categories_nodes":[],"categories_segments":[],"categories_sizes":[],"default_left":[true,true,true,false,false,false,false],"id":51,"left_children":[1,3,5,-1,-1,-1,-1],"loss_changes":[2.1500696E1,1.4643915E1,1.8715843E1,0E0,0E0,0E0,0E0],"parents":[2147483647,0,0,1,1,2,2],"right_children":[2,4,6,-1,-1,-1,-1],"split_conditions":[1.85E1,-7.5E0,1.015E2,1.5510428E-2,-2.0343153E-2,3.6269277E-3,4.0000003E-2],"split_indices":[4,14,3,0,0,0,0],"split_type":[0,0,0,0,0,0,0],"sum_hessian":[1.4654951E3,7.017825E2,7.637127E2,1.4217934E2,5.596031E2,6.223509E2,1.4136186E2],"tree_param":{"num_deleted":"0","num_feature":"23","num_nodes":"7","size_leaf_vector":"0"}},{"base_weights":[1.2266625E-2,-2.6187653E-2,3.6684498E-1,-1.5070489E-1,5.8670234E-2,-4E-1,4E-1],"categories":[],"categories_nodes":[],"categories_segments":[],"categories_sizes":[],"default_left":[true,true,true,false,false,false,false],"id":52,"left_children":[1,3,5,-1,-1,-1,-1],"loss_changes":[1.9894106E1,1.3920252E1,9.45845E0,0E0,0E0,0E0,0E0],"parents":[2147483647,0,0,1,1,2,2],"right_children":[2,4,6,-1,-1,-1,-1],"split_conditions":[8.45E1,1.65E1,1.315E2,-1.507049E-2,5.8670235E-3,-4.0000003E-2,4.0000003E-2],"split_indices":[0,4,1,0,0,0,0],"split_type":[0,0,0,0,0,0,0],"sum_hessian":[1.4573368E3,1.3155867E3,1.4175017E2,5.328811E2,7.827055E2,1.3079802E1,1.2867038E2],"tree_param":{"num_deleted":"0","num_feature":"23","num_nodes":"7","size_leaf_vector":"0"}},{"base_weights":[2.2251229E-3,-2.0536791E-1,7.055023E-2,-4.7501806E-2,-4E-1,4E-1,3.314233E-2],"categories":[],"categories_nodes":[],"categories_segments":[],"categories_sizes":[],"default_left":[true,true,true,false,false,false,false],"id":53,"left_children":[1,3,5,-1,-1,-1,-1],"loss_changes":[2.0670189E1,1.45751095E1,2.05744E1,0E0,0E0,0E0,0E0],"parents":[2147483647,0,0,1,1,2,2],"right_children":[2,4,6,-1,-1,-1,-1],"split_conditions":[6.35E1,6.05E1,-7.5E0,-4.7501805E-3,-4.0000003E-2,4.0000003E-2,3.314233E-3],"split_indices":[0,18,14,0,0,0,0],"split_type":[0,0,0,0,0,0,0],"sum_hessian":[1.4552864E3,3.5987326E2,1.0954131E3,2.2760725E2,1.32266E2,5.8136776E1,1.0372762E3],"tree_param":{"num_deleted":"0","num_feature":"23","num_nodes":"7","size_leaf_vector":"0"}},{"base_weights":[1.4331789E-3,-5.8582455E-2,2.1792324E-1,3.1653765E-1,-1.2237347E-1,-2.1115865E-1,3.3716282E-1],"categories":[],"categories_nodes":[],"categories_segments":[],"categories_sizes":[],"default_left":[true,true,true,false,false,false,false],"id":54,"left_children":[1,3,5,-1,-1,-1,-1],"loss_changes":[1.8932594E1,2.7339737E1,1.6252993E1,0E0,0E0,0E0,0E0],"parents":[2147483647,0,0,1,1,2,2],"right_children":[2,4,6,-1,-1,-1,-1],"split_conditions":[1.5E0,-7.5E0,6.55E1,3.1653766E-2,-1.2237347E-2,-2.1115866E-2,3.3716284E-2],"split_indices":[14,14,0,0,0,0,0],"split_type":[0,0,0,0,0,0,0],"sum_hessian":[1.4551791E3,1.1399032E3,3.152759E2,1.6509683E2,9.7480634E2,6.839318E1,2.4688274E2],"tree_param":{"num_deleted":"0","num_feature":"23","num_nodes":"7","size_leaf_vector":"0"}},{"base_weights":[4.7293045E-3,6.5025754E-2,-2.1321051E-1,-5.3450815E-2,1.9033071E-1,-3.3172804E-1,7.600051E-2],"categories":[],"categories_nodes":[],"categories_segments":[],"categories_sizes":[],"default_left":[true,true,true,false,false,false,false],"id":55,"left_children":[1,3,5,-1,-1,-1,-1],"loss_changes":[1.9073515E1,1.6887474E1,1.0806855E1,0E0,0E0,0E0,0E0],"parents":[2147483647,0,0,1,1,2,2],"right_children":[2,4,6,-1,-1,-1,-1],"split_conditions":[4.65E1,9.65E1,5E-1,-5.3450814E-3,1.9033073E-2,-3.3172805E-2,7.6000514E-3],"split_indices":[13,7,14,0,0,0,0],"split_type":[0,0,0,0,0,0,0],"sum_hessian":[1.4493961E3,1.1358478E3,3.1354837E2,5.8412634E2,5.5172144E2,2.2230261E2,9.124575E1],"tree_param":{"num_deleted":"0","num_feature":"23","num_nodes":"7","size_leaf_vector":"0"}},{"base_weights":[8.192748E-3,-1.5961173E-1,8.360007E-2,-2.7856557E-4,-3.331587E-1,1.3201398E-1,-2.2431217E-1],"categories":[],"categories_nodes":[],"categories_segments":[],"categories_sizes":[],"default_left":[true,true,true,false,false,false,false],"id":56,"left_children":[1,3,5,-1,-1,-1,-1],"loss_changes":[1.8165934E1,1.2308519E1,1.4794338E1,0E0,0E0,0E0,0E0],"parents":[2147483647,0,0,1,1,2,2],"right_children":[2,4,6,-1,-1,-1,-1],"split_conditions":[1.345E2,2.95E1,7.5E0,-2.7856557E-5,-3.331587E-2,1.3201398E-2,-2.2431217E-2],"split_indices":[1,13,19,0,0,0,0],"split_type":[0,0,0,0,0,0,0],"sum_hessian":[1.4335693E3,4.4412903E2,9.8944037E2,2.3206874E2,2.1206029E2,8.554991E2,1.3394125E2],"tree_param":{"num_deleted":"0","num_feature":"23","num_nodes":"7","size_leaf_vector":"0"}},{"base_weights":[2.7848382E-3,4.2851686E-2,-3.225443E-1,6.570067E-2,-4E-1,4E-1,-3.7018555E-1],"categories":[],"categories_nodes":[],"categories_segments":[],"categories_sizes":[],"default_left":[true,true,true,false,false,false,false],"id":57,"left_children":[1,3,5,-1,-1,-1,-1],"loss_changes":[1.8843027E1,1.6441236E1,6.8076153E0,0E0,0E0,0E0,0E0],"parents":[2147483647,0,0,1,1,2,2],"right_children":[2,4,6,-1,-1,-1,-1],"split_conditions":[5.55E1,5.5E0,-7.5E0,6.5700673E-3,-4.0000003E-2,4.0000003E-2,-3.7018556E-2],"split_indices":[13,15,14,0,0,0,0],"split_type":[0,0,0,0,0,0,0],"sum_hessian":[1.443521E3,1.2860073E3,1.5751366E2,1.2393616E3,4.6645756E1,7.2577124E0,1.5025594E2],"tree_param":{"num_deleted":"0","num_feature":"23","num_nodes":"7","size_leaf_vector":"0"}},{"base_weights":[-5.252373E-3,-1.8217325E-1,5.7741374E-2,3.4355916E-2,-3.0956337E-1,2.0088007E-1,-5.9558537E-2],"categories":[],"categories_nodes":[],"categories_segments":[],"categories_sizes":[],"default_left":[true,true,true,false,false,false,false],"id":58,"left_children":[1,3,5,-1,-1,-1,-1],"loss_changes":[1.5932812E1,1.0364451E1,1.771383E1,0E0,0E0,0E0,0E0],"parents":[2147483647,0,0,1,1,2,2],"right_children":[2,4,6,-1,-1,-1,-1],"split_conditions":[1.195E2,1.05E1,2.35E1,3.4355917E-3,-3.0956337E-2,2.0088008E-2,-5.955854E-3],"split_indices":[1,1,17,0,0,0,0],"split_type":[0,0,0,0,0,0,0],"sum_hessian":[1.4276606E3,3.743603E2,1.0533003E3,1.389362E2,2.354241E2,4.7407895E2,5.792214E2],"tree_param":{"num_deleted":"0","num_feature":"23","num_nodes":"7","size_leaf_vector":"0"}},{"base_weights":[-1.2435438E-2,-7.814507E-2,1.6231675E-1,3.4857136E-3,-2.7817503E-1,3.0374312E-1,-6.985492E-2],"categories":[],"categories_nodes":[],"categories_segments":[],"categories_sizes":[],"default_left":[true,true,true,false,false,false,false],"id":59,"left_children":[1,3,5,-1,-1,-1,-1],"loss_changes":[1.636791E1,1.6913689E1,1.281179E1,0E0,0E0,0E0,0E0],"parents":[2147483647,0,0,1,1,2,2],"right_children":[2,4,6,-1,-1,-1,-1],"split_conditions":[2.65E1,1.5E0,1.5E0,3.4857137E-4,-2.7817503E-2,3.0374313E-2,-6.9854925E-3],"split_indices":[4,15,21,0,0,0,0],"split_type":[0,0,0,0,0,0,0],"sum_hessian":[1.4233112E3,1.0347727E3,3.8853836E2,7.355732E2,2.9919955E2,2.4126474E2,1.4727364E2],"tree_param":{"num_deleted":"0","num_feature":"23","num_nodes":"7","size_leaf_vector":"0"}},{"base_weights":[1.5222543E-2,-1.2846315E-2,3.4103972E-1,2.638504E-1,-4.5874156E-2,-4E-1,4E-1],"categories":[],"categories_nodes":[],"categories_segments":[],"categories_sizes":[],"default_left":[true,true,true,false,false,false,false],"id":60,"left_children":[1,3,5,-1,-1,-1,-1],"loss_changes":[1.3048229E1,1.2021478E1,7.2737055E0,0E0,0E0,0E0,0E0],"parents":[2147483647,0,0,1,1,2,2],"right_children":[2,4,6,-1,-1,-1,-1],"split_conditions":[8.55E1,-7.5E0,-4E0,2.638504E-2,-4.5874156E-3,-4.0000003E-2,4.0000003E-2],"split_indices":[0,14,21,0,0,0,0],"split_type":[0,0,0,0,0,0,0],"sum_hessian":[1.4252872E3,1.3131234E3,1.1216384E2,1.392812E2,1.1738423E3,4.550935E0,1.0761291E2],"tree_param":{"num_deleted":"0","num_feature":"23","num_nodes":"7","size_leaf_vector":"0"}},{"base_weights":[6.957686E-4,-1.6628526E-1,7.499805E-2,1.9687326E-3,-2.94879E-1,-2.0907442E-1,1.3554996E-1],"categories":[],"categories_nodes":[],"categories_segments":[],"categories_sizes":[],"default_left":[true,true,true,false,false,false,false],"id":61,"left_children":[1,3,5,-1,-1,-1,-1],"loss_changes":[1.764229E1,9.474876E0,1.695533E1,0E0,0E0,0E0,0E0],"parents":[2147483647,0,0,1,1,2,2],"right_children":[2,4,6,-1,-1,-1,-1],"split_conditions":[5.5E0,3.5E0,4.85E1,1.9687325E-4,-2.9487899E-2,-2.0907443E-2,1.3554997E-2],"split_indices":[9,9,3,0,0,0,0],"split_type":[0,0,0,0,0,0,0],"sum_hessian":[1.4199495E3,4.368868E2,9.830626E2,1.8968489E2,2.4720192E2,1.7229713E2,8.1076544E2],"tree_param":{"num_deleted":"0","num_feature":"23","num_nodes":"7","size_leaf_vector":"0"}},{"base_weights":[2.1429474E-3,5.115944E-2,-1.7976989E-1,3.919312E-3,2.8185624E-1,4E-1,-2.2066602E-1],"categories":[],"categories_nodes":[],"categories_segments":[],"categories_sizes":[],"default_left":[true,true,true,false,false,false,false],"id":62,"left_children":[1,3,5,-1,-1,-1,-1],"loss_changes":[1.2677043E1,1.220385E1,9.767338E0,0E0,0E0,0E0,0E0],"parents":[2147483647,0,0,1,1,2,2],"right_children":[2,4,6,-1,-1,-1,-1],"split_conditions":[4.65E1,3.15E1,-7.5E0,3.919312E-4,2.8185625E-2,4.0000003E-2,-2.2066602E-2],"split_indices":[13,4,14,0,0,0,0],"split_type":[0,0,0,0,0,0,0],"sum_hessian":[1.4196832E3,1.118911E3,3.0077228E2,9.295771E2,1.893339E2,1.2687672E1,2.880846E2],"tree_param":{"num_deleted":"0","num_feature":"23","num_nodes":"7","size_leaf_vector":"0"}},{"base_weights":[2.82231E-3,-5.4681517E-2,1.4969546E-1,-1.02088384E-1,1.796719E-1,2.1506143E-1,-3.9220965E-1],"categories":[],"categories_nodes":[],"categories_segments":[],"categories_sizes":[],"default_left":[true,true,true,false,false,false,false],"id":63,"left_children":[1,3,5,-1,-1,-1,-1],"loss_changes":[1.2006461E1,1.1368821E1,1.4252396E1,0E0,0E0,0E0,0E0],"parents":[2147483647,0,0,1,1,2,2],"right_children":[2,4,6,-1,-1,-1,-1],"split_conditions":[5E-1,2.785E2,7.15E1,-1.0208839E-2,1.796719E-2,2.1506144E-2,-3.9220966E-2],"split_indices":[14,1,17,0,0,0,0],"split_type":[0,0,0,0,0,0,0],"sum_hessian":[1.4196257E3,1.0206487E3,3.9897702E2,8.493914E2,1.7125725E2,3.565698E2,4.240722E1],"tree_param":{"num_deleted":"0","num_feature":"23","num_nodes":"7","size_leaf_vector":"0"}},{"base_weights":[5.790248E-3,3.4395352E-2,-3.6062488E-1,-1.1259015E-1,1.00253016E-1,-4E-1,1.9198047E-1],"categories":[],"categories_nodes":[],"categories_segments":[],"categories_sizes":[],"default_left":[true,true,true,false,false,false,false],"id":64,"left_children":[1,3,5,-1,-1,-1,-1],"loss_changes":[1.4772761E1,1.2665009E1,4.5826387E0,0E0,0E0,0E0,0E0],"parents":[2147483647,0,0,1,1,2,2],"right_children":[2,4,6,-1,-1,-1,-1],"split_conditions":[7.85E1,5.5E0,3.75E1,-1.1259015E-2,1.0025302E-2,-4.0000003E-2,1.9198047E-2],"split_indices":[17,9,8,0,0,0,0],"split_type":[0,0,0,0,0,0,0],"sum_hessian":[1.4072507E3,1.3061862E3,1.0106453E2,4.039389E2,9.0224725E2,8.8079636E1,1.2984898E1],"tree_param":{"num_deleted":"0","num_feature":"23","num_nodes":"7","size_leaf_vector":"0"}},{"base_weights":[9.67674E-3,-4.4764474E-2,1.505132E-1,1.641906E-2,-2.756368E-1,-4E-1,1.9756706E-1],"categories":[],"categories_nodes":[],"categories_segments":[],"categories_sizes":[],"default_left":[true,true,true,false,false,false,false],"id":65,"left_children":[1,3,5,-1,-1,-1,-1],"loss_changes":[1.0837568E1,1.4406305E1,1.2049393E1,0E0,0E0,0E0,0E0],"parents":[2147483647,0,0,1,1,2,2],"right_children":[2,4,6,-1,-1,-1,-1],"split_conditions":[5E-1,4.65E1,7.55E1,1.6419061E-3,-2.756368E-2,-4.0000003E-2,1.9756706E-2],"split_indices":[14,13,7,0,0,0,0],"split_type":[0,0,0,0,0,0,0],"sum_hessian":[1.4115989E3,1.01855304E3,3.9304587E2,8.05908E2,2.1264502E2,2.5421284E1,3.6762457E2],"tree_param":{"num_deleted":"0","num_feature":"23","num_nodes":"7","size_leaf_vector":"0"}},{"base_weights":[-1.6552476E-3,1.6575629E-2,-4E-1,-4.837452E-2,1.2531485E-1,-4E-1,1.9976592E-1],"categories":[],"categories_nodes":[],"categories_segments":[],"categories_sizes":[],"default_left":[true,true,true,false,false,false,false],"id":66,"left_children":[1,3,5,-1,-1,-1,-1],"loss_changes":[1.1551553E1,9.552439E0,4.5429525E0,0E0,0E0,0E0,0E0],"parents":[2147483647,0,0,1,1,2,2],"right_children":[2,4,6,-1,-1,-1,-1],"split_conditions":[5.5E0,2.25E1,2.05E1,-4.837452E-3,1.25314845E-2,-4.0000003E-2,1.9976592E-2],"split_indices":[15,4,8,0,0,0,0],"split_type":[0,0,0,0,0,0,0],"sum_hessian":[1.4034221E3,1.3506747E3,5.274745E1,8.459451E2,5.0472952E2,4.0673496E1,1.2073953E1],"tree_param":{"num_deleted":"0","num_feature":"23","num_nodes":"7","size_leaf_vector":"0"}},{"base_weights":[4.242936E-3,-2.2538804E-2,2.664093E-1,-4.7524855E-2,2.640933E-1,-4E-1,3.576239E-1],"categories":[],"categories_nodes":[],"categories_segments":[],"categories_sizes":[],"default_left":[true,true,true,false,false,false,false],"id":67,"left_children":[1,3,5,-1,-1,-1,-1],"loss_changes":[9.8457365E0,9.125562E0,8.736426E0,0E0,0E0,0E0,0E0],"parents":[2147483647,0,0,1,1,2,2],"right_children":[2,4,6,-1,-1,-1,-1],"split_conditions":[8.45E1,3.85E1,1.325E2,-4.7524855E-3,2.6409332E-2,-4.0000003E-2,3.5762392E-2],"split_indices":[0,4,1,0,0,0,0],"split_type":[0,0,0,0,0,0,0],"sum_hessian":[1.4004175E3,1.2714463E3,1.2897122E2,1.170267E3,1.0117932E2,1.39128275E1,1.1505839E2],"tree_param":{"num_deleted":"0","num_feature":"23","num_nodes":"7","size_leaf_vector":"0"}},{"base_weights":[3.186645E-3,3.9376635E-2,-1.9156747E-1,-8.5792206E-2,9.841891E-2,-3.2463336E-1,2.5968793E-1],"categories":[],"categories_nodes":[],"categories_segments":[],"categories_sizes":[],"default_left":[true,true,true,false,false,false,false],"id":68,"left_children":[1,3,5,-1,-1,-1,-1],"loss_changes":[9.916596E0,8.776431E0,1.3323566E1,0E0,0E0,0E0,0E0],"parents":[2147483647,0,0,1,1,2,2],"right_children":[2,4,6,-1,-1,-1,-1],"split_conditions":[8.75E1,5.5E0,1.5E0,-8.579221E-3,9.841891E-3,-3.246334E-2,2.5968794E-2],"split_indices":[18,9,14,0,0,0,0],"split_type":[0,0,0,0,0,0,0],"sum_hessian":[1.4049086E3,1.1854258E3,2.1948276E2,3.7980057E2,8.0562524E2,1.6971725E2,4.9765507E1],"tree_param":{"num_deleted":"0","num_feature":"23","num_nodes":"7","size_leaf_vector":"0"}},{"base_weights":[-8.278396E-3,3.652207E-3,-4E-1,3.5647646E-2,-2.2200942E-1,-4E-1,4E-1],"categories":[],"categories_nodes":[],"categories_segments":[],"categories_sizes":[],"default_left":[true,true,true,false,false,false,false],"id":69,"left_children":[1,3,5,-1,-1,-1,-1],"loss_changes":[9.639554E0,9.917416E0,3.1677523E0,0E0,0E0,0E0,0E0],"parents":[2147483647,0,0,1,1,2,2],"right_children":[2,4,6,-1,-1,-1,-1],"split_conditions":[7.5E0,5.35E1,7.05E1,3.5647645E-3,-2.2200942E-2,-4.0000003E-2,4.0000003E-2],"split_indices":[16,13,17,0,0,0,0],"split_type":[0,0,0,0,0,0,0],"sum_hessian":[1.3924926E3,1.3714799E3,2.1012653E1,1.2019092E3,1.695707E2,1.7567732E1,3.4449224E0],"tree_param":{"num_deleted":"0","num_feature":"23","num_nodes":"7","size_leaf_vector":"0"}},{"base_weights":[-8.780349E-3,-4.481981E-2,1.5451871E-1,-2.117852E-2,-3.1858832E-1,-4E-1,1.9627239E-1],"categories":[],"categories_nodes":[],"categories_segments":[],"categories_sizes":[],"default_left":[true,true,true,false,false,false,false],"id":70,"left_children":[1,3,5,-1,-1,-1,-1],"loss_changes":[8.257046E0,7.430951E0,6.363552E0,0E0,0E0,0E0,0E0],"parents":[2147483647,0,0,1,1,2,2],"right_children":[2,4,6,-1,-1,-1,-1],"split_conditions":[2.785E2,7.85E1,5E-1,-2.117852E-3,-3.185883E-2,-4.0000003E-2,1.962724E-2],"split_indices":[1,17,17,0,0,0,0],"split_type":[0,0,0,0,0,0,0],"sum_hessian":[1.4008396E3,1.1481687E3,2.526708E2,1.0578918E3,9.027693E1,1.5934236E1,2.3673657E2],"tree_param":{"num_deleted":"0","num_feature":"23","num_nodes":"7","size_leaf_vector":"0"}},{"base_weights":[-1.2377976E-2,-1.5199432E-1,3.7351172E-2,-4.465412E-2,-3.0111343E-1,4E-1,1.012172E-2],"categories":[],"categories_nodes":[],"categories_segments":[],"categories_sizes":[],"default_left":[true,true,true,false,false,false,false],"id":71,"left_children":[1,3,5,-1,-1,-1,-1],"loss_changes":[9.754188E0,5.8923025E0,1.3644703E1,0E0,0E0,0E0,0E0],"parents":[2147483647,0,0,1,1,2,2],"right_children":[2,4,6,-1,-1,-1,-1],"split_conditions":[1.195E2,3.05E1,-7.5E0,-4.465412E-3,-3.0111343E-2,4.0000003E-2,1.012172E-3],"split_indices":[1,13,14,0,0,0,0],"split_type":[0,0,0,0,0,0,0],"sum_hessian":[1.403077E3,3.6795996E2,1.0351171E3,2.1470709E2,1.5325285E2,4.885539E1,9.8626166E2],"tree_param":{"num_deleted":"0","num_feature":"23","num_nodes":"7","size_leaf_vector":"0"}},{"base_weights":[-3.09299E-3,2.4718772E-1,-3.52422E-2,7.040146E-2,4E-1,-1.0461746E-1,1.1566756E-1],"categories":[],"categories_nodes":[],"categories_segments":[],"categories_sizes":[],"default_left":[true,true,true,false,false,false,false],"id":72,"left_children":[1,3,5,-1,-1,-1,-1],"loss_changes":[1.1176276E1,8.887974E0,1.2897812E1,0E0,0E0,0E0,0E0],"parents":[2147483647,0,0,1,1,2,2],"right_children":[2,4,6,-1,-1,-1,-1],"split_conditions":[-7.5E0,2.5E0,5E-1,7.0401463E-3,4.0000003E-2,-1.0461747E-2,1.1566756E-2],"split_indices":[14,17,14,0,0,0,0],"split_type":[0,0,0,0,0,0,0],"sum_hessian":[1.3869084E3,1.5711143E2,1.229797E3,1.1627441E2,4.0837036E1,8.4270215E2,3.8709482E2],"tree_param":{"num_deleted":"0","num_feature":"23","num_nodes":"7","size_leaf_vector":"0"}},{"base_weights":[-3.3252692E-4,4.2569887E-2,-1.4183149E-1,-1.1314812E-1,8.522274E-2,3.5453057E-1,-2.1512216E-1],"categories":[],"categories_nodes":[],"categories_segments":[],"categories_sizes":[],"default_left":[true,true,true,false,false,false,false],"id":73,"left_children":[1,3,5,-1,-1,-1,-1],"loss_changes":[8.467037E0,7.1180944E0,1.1881121E1,0E0,0E0,0E0,0E0],"parents":[2147483647,0,0,1,1,2,2],"right_children":[2,4,6,-1,-1,-1,-1],"split_conditions":[5.5E0,8.5E0,1.75E1,-1.1314812E-2,8.522275E-3,3.545306E-2,-2.1512216E-2],"split_indices":[19,11,17,0,0,0,0],"split_type":[0,0,0,0,0,0,0],"sum_hessian":[1.3927559E3,1.0692568E3,3.23499E2,2.2955167E2,8.3970514E2,4.1127197E1,2.823718E2],"tree_param":{"num_deleted":"0","num_feature":"23","num_nodes":"7","size_leaf_vector":"0"}},{"base_weights":[-6.5800874E-4,-3.4661975E-2,2.133154E-1,-1.333869E-1,5.5591427E-2,2.8377947E-1,-2.68398E-1],"categories":[],"categories_nodes":[],"categories_segments":[],"categories_sizes":[],"default_left":[true,true,true,false,false,false,false],"id":74,"left_children":[1,3,5,-1,-1,-1,-1],"loss_changes":[1.01087675E1,1.0689128E1,6.54288E0,0E0,0E0,0E0,0E0],"parents":[2147483647,0,0,1,1,2,2],"right_children":[2,4,6,-1,-1,-1,-1],"split_conditions":[3.15E1,9.65E1,7.5E0,-1.333869E-2,5.5591427E-3,2.8377948E-2,-2.6839798E-2],"split_indices":[8,7,19,0,0,0,0],"split_type":[0,0,0,0,0,0,0],"sum_hessian":[1.3873246E3,1.1978104E3,1.8951418E2,5.718293E2,6.259812E2,1.6568849E2,2.3825686E1],"tree_param":{"num_deleted":"0","num_feature":"23","num_nodes":"7","size_leaf_vector":"0"}},{"base_weights":[1.2272391E-3,1.129739E-2,-4E-1,-3.7100058E-2,1.4145775E-1,-4E-1,4E-1],"categories":[],"categories_nodes":[],"categories_segments":[],"categories_sizes":[],"default_left":[true,true,true,false,false,false,false],"id":75,"left_children":[1,3,5,-1,-1,-1,-1],"loss_changes":[7.4748845E0,8.613535E0,3.0622826E0,0E0,0E0,0E0,0E0],"parents":[2147483647,0,0,1,1,2,2],"right_children":[2,4,6,-1,-1,-1,-1],"split_conditions":[7.5E0,2.65E1,7.05E1,-3.710006E-3,1.4145776E-2,-4.0000003E-2,4.0000003E-2],"split_indices":[15,4,17,0,0,0,0],"split_type":[0,0,0,0,0,0,0],"sum_hessian":[1.3875477E3,1.3655187E3,2.202904E1,9.9592096E2,3.6959775E2,1.852275E1,3.506289E0],"tree_param":{"num_deleted":"0","num_feature":"23","num_nodes":"7","size_leaf_vector":"0"}},{"base_weights":[1.522493E-2,2.6384307E-2,-4E-1,5.1280495E-2,-2.0359431E-1,-4E-1,3.2009804E-1],"categories":[],"categories_nodes":[],"categories_segments":[],"categories_sizes":[],"default_left":[true,true,true,false,false,false,false],"id":76,"left_children":[1,3,5,-1,-1,-1,-1],"loss_changes":[9.061367E0,7.872519E0,2.353815E0,0E0,0E0,0E0,0E0],"parents":[2147483647,0,0,1,1,2,2],"right_children":[2,4,6,-1,-1,-1,-1],"split_conditions":[7.5E0,7.35E1,7E1,5.1280498E-3,-2.0359432E-2,-4.0000003E-2,3.2009806E-2],"split_indices":[15,17,17,0,0,0,0],"split_type":[0,0,0,0,0,0,0],"sum_hessian":[1.3934623E3,1.3721471E3,2.131526E1,1.2388168E3,1.333303E2,1.7467398E1,3.847862E0],"tree_param":{"num_deleted":"0","num_feature":"23","num_nodes":"7","size_leaf_vector":"0"}},{"base_weights":[-2.803545E-3,-6.7323886E-2,9.6584864E-2,-8.804983E-2,3.6175707E-1,-6.86093E-2,1.9680461E-1],"categories":[],"categories_nodes":[],"categories_segments":[],"categories_sizes":[],"default_left":[true,true,true,false,false,false,false],"id":77,"left_children":[1,3,5,-1,-1,-1,-1],"loss_changes":[8.867352E0,7.488359E0,9.02534E0,0E0,0E0,0E0,0E0],"parents":[2147483647,0,0,1,1,2,2],"right_children":[2,4,6,-1,-1,-1,-1],"split_conditions":[8.05E1,4.65E1,2.165E2,-8.804983E-3,3.617571E-2,-6.86093E-3,1.968046E-2],"split_indices":[3,11,1,0,0,0,0],"split_type":[0,0,0,0,0,0,0],"sum_hessian":[1.3807928E3,8.374591E2,5.433338E2,7.9962933E2,3.7829792E1,2.0528082E2,3.3805295E2],"tree_param":{"num_deleted":"0","num_feature":"23","num_nodes":"7","size_leaf_vector":"0"}},{"base_weights":[-5.3929526E-4,-3.5521574E-2,1.8278922E-1,-2.1212937E-2,-4E-1,-1.2063555E-1,2.9289395E-1],"categories":[],"categories_nodes":[],"categories_segments":[],"categories_sizes":[],"default_left":[true,true,true,false,false,false,false],"id":78,"left_children":[1,3,5,-1,-1,-1,-1],"loss_changes":[8.873976E0,7.1679955E0,7.442819E0,0E0,0E0,0E0,0E0],"parents":[2147483647,0,0,1,1,2,2],"right_children":[2,4,6,-1,-1,-1,-1],"split_conditions":[3.15E1,5.5E0,5.5E0,-2.1212937E-3,-4.0000003E-2,-1.20635545E-2,2.9289395E-2],"split_indices":[4,15,9,0,0,0,0],"split_type":[0,0,0,0,0,0,0],"sum_hessian":[1.3816819E3,1.1609572E3,2.2072464E2,1.1259031E3,3.505412E1,5.87438E1,1.6198083E2],"tree_param":{"num_deleted":"0","num_feature":"23","num_nodes":"7","size_leaf_vector":"0"}},{"base_weights":[-4.637398E-3,2.389883E-2,-2.2704628E-1,-5.326364E-2,1.1122143E-1,-2.7869102E-1,4E-1],"categories":[],"categories_nodes":[],"categories_segments":[],"categories_sizes":[],"default_left":[true,true,true,false,false,false,false],"id":79,"left_children":[1,3,5,-1,-1,-1,-1],"loss_changes":[8.73022E0,8.221444E0,5.809906E0,0E0,0E0,0E0,0E0],"parents":[2147483647,0,0,1,1,2,2],"right_children":[2,4,6,-1,-1,-1,-1],"split_conditions":[7.5E0,9.65E1,5.5E0,-5.3263637E-3,1.1122144E-2,-2.7869103E-2,4.0000003E-2],"split_indices":[19,7,20,0,0,0,0],"split_type":[0,0,0,0,0,0,0],"sum_hessian":[1.3736954E3,1.2182766E3,1.5541876E2,6.4697144E2,5.713052E2,1.4547977E2,9.93899E0],"tree_param":{"num_deleted":"0","num_feature":"23","num_nodes":"7","size_leaf_vector":"0"}},{"base_weights":[2.4662765E-3,1.33009525E-2,-4E-1,-3.105204E-3,3.4436187E-1,-4E-1,3.648262E-1],"categories":[],"categories_nodes":[],"categories_segments":[],"categories_sizes":[],"default_left":[true,true,true,false,false,false,false],"id":80,"left_children":[1,3,5,-1,-1,-1,-1],"loss_changes":[8.417672E0,7.344123E0,2.308878E0,0E0,0E0,0E0,0E0],"parents":[2147483647,0,0,1,1,2,2],"right_children":[2,4,6,-1,-1,-1,-1],"split_conditions":[7.5E0,4.65E1,7.5E0,-3.105204E-4,3.443619E-2,-4.0000003E-2,3.648262E-2],"split_indices":[15,11,2,0,0,0,0],"split_type":[0,0,0,0,0,0,0],"sum_hessian":[1.3717695E3,1.350954E3,2.0815477E1,1.2881106E3,6.2843388E1,1.7594881E1,3.2205966E0],"tree_param":{"num_deleted":"0","num_feature":"23","num_nodes":"7","size_leaf_vector":"0"}},{"base_weights":[5.773911E-3,2.3768118E-1,-2.3086226E-2,9.0873234E-2,4E-1,-7.131011E-2,1.2664242E-1],"categories":[],"categories_nodes":[],"categories_segments":[],"categories_sizes":[],"default_left":[true,true,true,false,false,false,false],"id":81,"left_children":[1,3,5,-1,-1,-1,-1],"loss_changes":[9.205562E0,7.00161E0,8.8424835E0,0E0,0E0,0E0,0E0],"parents":[2147483647,0,0,1,1,2,2],"right_children":[2,4,6,-1,-1,-1,-1],"split_conditions":[-7.5E0,1.5E0,1.5E0,9.087323E-3,4.0000003E-2,-7.131011E-3,1.2664243E-2],"split_indices":[14,19,14,0,0,0,0],"split_type":[0,0,0,0,0,0,0],"sum_hessian":[1.3736072E3,1.5122162E2,1.2223855E3,1.1591427E2,3.5307346E1,9.249922E2,2.9739334E2],"tree_param":{"num_deleted":"0","num_feature":"23","num_nodes":"7","size_leaf_vector":"0"}},{"base_weights":[-1.7926933E-2,7.759354E-3,-2.3269467E-1,2.7535614E-2,-2.5215465E-1,-3.1282294E-1,4E-1],"categories":[],"categories_nodes":[],"categories_segments":[],"categories_sizes":[],"default_left":[true,true,true,false,false,false,false],"id":82,"left_children":[1,3,5,-1,-1,-1,-1],"loss_changes":[7.6086435E0,6.3425145E0,9.510424E0,0E0,0E0,0E0,0E0],"parents":[2147483647,0,0,1,1,2,2],"right_children":[2,4,6,-1,-1,-1,-1],"split_conditions":[3.5E0,7.85E1,5.5E0,2.7535614E-3,-2.5215466E-2,-3.1282295E-2,4.0000003E-2],"split_indices":[15,17,20,0,0,0,0],"split_type":[0,0,0,0,0,0,0],"sum_hessian":[1.3779034E3,1.231571E3,1.463324E2,1.1453203E3,8.625073E1,1.3410277E2,1.2229628E1],"tree_param":{"num_deleted":"0","num_feature":"23","num_nodes":"7","size_leaf_vector":"0"}},{"base_weights":[-8.105141E-3,-6.723011E-2,8.779427E-2,-2.5487825E-2,-2.7538368E-1,4.2424068E-2,3.6289212E-1],"categories":[],"categories_nodes":[],"categories_segments":[],"categories_sizes":[],"default_left":[true,true,true,false,false,false,false],"id":83,"left_children":[1,3,5,-1,-1,-1,-1],"loss_changes":[7.761763E0,7.350134E0,6.5013824E0,0E0,0E0,0E0,0E0],"parents":[2147483647,0,0,1,1,2,2],"right_children":[2,4,6,-1,-1,-1,-1],"split_conditions":[8.15E1,2.075E2,3.45E1,-2.5487826E-3,-2.7538368E-2,4.2424067E-3,3.628921E-2],"split_indices":[3,1,8,0,0,0,0],"split_type":[0,0,0,0,0,0,0],"sum_hessian":[1.3668647E3,8.4573914E2,5.2112555E2,7.054029E2,1.4033624E2,4.4833813E2,7.278744E1],"tree_param":{"num_deleted":"0","num_feature":"23","num_nodes":"7","size_leaf_vector":"0"}},{"base_weights":[-1.0435619E-2,2.243633E-1,-4.0244345E-2,4.926011E-2,4E-1,-3.295327E-1,-1.0439203E-2],"categories":[],"categories_nodes":[],"categories_segments":[],"categories_sizes":[],"default_left":[true,true,true,false,false,false,false],"id":84,"left_children":[1,3,5,-1,-1,-1,-1],"loss_changes":[9.556943E0,9.069561E0,1.04410925E1,0E0,0E0,0E0,0E0],"parents":[2147483647,0,0,1,1,2,2],"right_children":[2,4,6,-1,-1,-1,-1],"split_conditions":[-7.5E0,2.5E0,5.95E1,4.926011E-3,4.0000003E-2,-3.2953274E-2,-1.0439203E-3],"split_indices":[14,17,0,0,0,0,0],"split_type":[0,0,0,0,0,0,0],"sum_hessian":[1.3631718E3,1.5282951E2,1.2103422E3,1.12600266E2,4.022924E1,1.121135E2,1.0982288E3],"tree_param":{"num_deleted":"0","num_feature":"23","num_nodes":"7","size_leaf_vector":"0"}},{"base_weights":[-1.021181E-2,1.9540848E-2,-1.7655505E-1,-1.4227659E-1,5.65274E-2,4.9363207E-2,-3.552167E-1],"categories":[],"categories_nodes":[],"categories_segments":[],"categories_sizes":[],"default_left":[true,true,true,false,false,false,false],"id":85,"left_children":[1,3,5,-1,-1,-1,-1],"loss_changes":[6.7857337E0,6.9708943E0,8.413937E0,0E0,0E0,0E0,0E0],"parents":[2147483647,0,0,1,1,2,2],"right_children":[2,4,6,-1,-1,-1,-1],"split_conditions":[8.75E1,8.5E0,2.65E1,-1.42276585E-2,5.65274E-3,4.9363207E-3,-3.552167E-2],"split_indices":[18,4,17,0,0,0,0],"split_type":[0,0,0,0,0,0,0],"sum_hessian":[1.3693928E3,1.1623702E3,2.0702255E2,2.157239E2,9.4664636E2,9.174032E1,1.15282234E2],"tree_param":{"num_deleted":"0","num_feature":"23","num_nodes":"7","size_leaf_vector":"0"}},{"base_weights":[8.486587E-3,5.8311705E-2,-9.4947465E-2,8.312413E-2,-2.8785113E-1,-1.7184229E-1,1.4810777E-1],"categories":[],"categories_nodes":[],"categories_segments":[],"categories_sizes":[],"default_left":[true,true,true,false,false,false,false],"id":86,"left_children":[1,3,5,-1,-1,-1,-1],"loss_changes":[7.053019E0,7.956247E0,8.341511E0,0E0,0E0,0E0,0E0],"parents":[2147483647,0,0,1,1,2,2],"right_children":[2,4,6,-1,-1,-1,-1],"split_conditions":[1.5E0,7.85E1,3.35E1,8.3124135E-3,-2.8785113E-2,-1.718423E-2,1.4810777E-2],"split_indices":[15,17,11,0,0,0,0],"split_type":[0,0,0,0,0,0,0],"sum_hessian":[1.3664835E3,9.225291E2,4.4395438E2,8.615354E2,6.0993683E1,3.374797E2,1.0647469E2],"tree_param":{"num_deleted":"0","num_feature":"23","num_nodes":"7","size_leaf_vector":"0"}},{"base_weights":[1.8156542E-2,4.3668635E-2,-1.81116E-1,-1.3202495E-2,1.5897962E-1,-2.9028192E-1,1.9273835E-1],"categories":[],"categories_nodes":[],"categories_segments":[],"categories_sizes":[],"default_left":[true,true,true,false,false,false,false],"id":87,"left_children":[1,3,5,-1,-1,-1,-1],"loss_changes":[6.9258885E0,7.9183416E0,6.3669844E0,0E0,0E0,0E0,0E0],"parents":[2147483647,0,0,1,1,2,2],"right_children":[2,4,6,-1,-1,-1,-1],"split_conditions":[7.5E0,2.25E1,4.15E1,-1.3202495E-3,1.5897963E-2,-2.9028192E-2,1.9273836E-2],"split_indices":[19,4,11,0,0,0,0],"split_type":[0,0,0,0,0,0,0],"sum_hessian":[1.3597733E3,1.2061371E3,1.5363622E2,8.083474E2,3.977897E2,1.1908639E2,3.4549828E1],"tree_param":{"num_deleted":"0","num_feature":"23","num_nodes":"7","size_leaf_vector":"0"}},{"base_weights":[-1.07489005E-2,7.4026133E-3,-2.979364E-1,9.639532E-2,-4.6265617E-2,-4E-1,4E-1],"categories":[],"categories_nodes":[],"categories_segments":[],"categories_sizes":[],"default_left":[true,true,true,false,false,false,false],"id":88,"left_children":[1,3,5,-1,-1,-1,-1],"loss_changes":[7.1030774E0,6.12823E0,7.88621E0,0E0,0E0,0E0,0E0],"parents":[2147483647,0,0,1,1,2,2],"right_children":[2,4,6,-1,-1,-1,-1],"split_conditions":[6.25E1,1.45E1,4.5E0,9.639532E-3,-4.626562E-3,-4.0000003E-2,4.0000003E-2],"split_indices":[13,17,14,0,0,0,0],"split_type":[0,0,0,0,0,0,0],"sum_hessian":[1.3611763E3,1.2811746E3,8.000164E1,4.8167108E2,7.9950354E2,6.874071E1,1.1260935E1],"tree_param":{"num_deleted":"0","num_feature":"23","num_nodes":"7","size_leaf_vector":"0"}},{"base_weights":[6.775039E-3,1.563099E-2,-4E-1,5.0074328E-2,-1.156991E-1,3.020887E-1,-4E-1],"categories":[],"categories_nodes":[],"categories_segments":[],"categories_sizes":[],"default_left":[true,true,true,false,false,false,false],"id":89,"left_children":[1,3,5,-1,-1,-1,-1],"loss_changes":[6.439419E0,6.082922E0,2.4828978E0,0E0,0E0,0E0,0E0],"parents":[2147483647,0,0,1,1,2,2],"right_children":[2,4,6,-1,-1,-1,-1],"split_conditions":[7.5E0,4.65E1,1.5E0,5.007433E-3,-1.156991E-2,3.020887E-2,-4.0000003E-2],"split_indices":[15,13,12,0,0,0,0],"split_type":[0,0,0,0,0,0,0],"sum_hessian":[1.3617239E3,1.342473E3,1.925078E1,1.0640327E3,2.7844028E2,4.361626E0,1.4889154E1],"tree_param":{"num_deleted":"0","num_feature":"23","num_nodes":"7","size_leaf_vector":"0"}},{"base_weights":[3.1265854E-3,2.6749277E-2,-1.8100783E-1,-1.5265058E-2,2.0119838E-1,-2.2509897E-1,4E-1],"categories":[],"categories_nodes":[],"categories_segments":[],"categories_sizes":[],"default_left":[true,true,true,false,false,false,false],"id":90,"left_children":[1,3,5,-1,-1,-1,-1],"loss_changes":[5.901069E0,8.814978E0,5.3318396E0,0E0,0E0,0E0,0E0],"parents":[2147483647,0,0,1,1,2,2],"right_children":[2,4,6,-1,-1,-1,-1],"split_conditions":[7.5E0,2.75E1,6.05E1,-1.5265058E-3,2.0119838E-2,-2.2509897E-2,4.0000003E-2],"split_indices":[19,4,11,0,0,0,0],"split_type":[0,0,0,0,0,0,0],"sum_hessian":[1.3545321E3,1.2012748E3,1.5325737E2,9.688495E2,2.3242528E2,1.463185E2,6.938868E0],"tree_param":{"num_deleted":"0","num_feature":"23","num_nodes":"7","size_leaf_vector":"0"}},{"base_weights":[1.6002135E-3,1.819596E-1,-2.165941E-2,3.2452352E-2,4E-1,-4E-1,3.1658404E-3],"categories":[],"categories_nodes":[],"categories_segments":[],"categories_sizes":[],"default_left":[true,true,true,false,false,false,false],"id":91,"left_children":[1,3,5,-1,-1,-1,-1],"loss_changes":[5.661512E0,8.405075E0,1.1327061E1,0E0,0E0,0E0,0E0],"parents":[2147483647,0,0,1,1,2,2],"right_children":[2,4,6,-1,-1,-1,-1],"split_conditions":[-7.5E0,2.25E1,6.5E0,3.2452352E-3,4.0000003E-2,-4.0000003E-2,3.1658405E-4],"split_indices":[14,13,4,0,0,0,0],"split_type":[0,0,0,0,0,0,0],"sum_hessian":[1.3476168E3,1.5316035E2,1.1944564E3,1.1665459E2,3.6505764E1,7.201863E1,1.1224379E3],"tree_param":{"num_deleted":"0","num_feature":"23","num_nodes":"7","size_leaf_vector":"0"}},{"base_weights":[5.0554518E-3,1.8462615E-2,-3.5341543E-1,-6.6495426E-2,7.4424334E-2,-4E-1,2.3417442E-1],"categories":[],"categories_nodes":[],"categories_segments":[],"categories_sizes":[],"default_left":[true,true,true,false,false,false,false],"id":92,"left_children":[1,3,5,-1,-1,-1,-1],"loss_changes":[6.509758E0,6.2108335E0,5.0885386E0,0E0,0E0,0E0,0E0],"parents":[2147483647,0,0,1,1,2,2],"right_children":[2,4,6,-1,-1,-1,-1],"split_conditions":[5.5E0,1.5E0,2.05E1,-6.6495426E-3,7.4424334E-3,-4.0000003E-2,2.3417441E-2],"split_indices":[15,20,8,0,0,0,0],"split_type":[0,0,0,0,0,0,0],"sum_hessian":[1.3521268E3,1.3042935E3,4.783336E1,5.178832E2,7.8641034E2,3.5519547E1,1.2313814E1],"tree_param":{"num_deleted":"0","num_feature":"23","num_nodes":"7","size_leaf_vector":"0"}},{"base_weights":[-4.4507766E-3,3.2040593E-3,-4E-1,5.498203E-2,-5.331783E-2,-4E-1,3.3428693E-1],"categories":[],"categories_nodes":[],"categories_segments":[],"categories_sizes":[],"default_left":[true,true,true,false,false,false,false],"id":93,"left_children":[1,3,5,-1,-1,-1,-1],"loss_changes":[5.0758767E0,3.8992453E0,2.110611E0,0E0,0E0,0E0,0E0],"parents":[2147483647,0,0,1,1,2,2],"right_children":[2,4,6,-1,-1,-1,-1],"split_conditions":[7.5E0,7.15E1,7.05E1,5.498203E-3,-5.331783E-3,-4.0000003E-2,3.3428695E-2],"split_indices":[16,0,17,0,0,0,0],"split_type":[0,0,0,0,0,0,0],"sum_hessian":[1.3489133E3,1.3303499E3,1.8563494E1,6.943262E2,6.360237E2,1.5352243E1,3.2112505E0],"tree_param":{"num_deleted":"0","num_feature":"23","num_nodes":"7","size_leaf_vector":"0"}},{"base_weights":[1.4320322E-2,-7.863471E-3,2.2913913E-1,1.7388731E-1,-3.4334462E-2,3.1807733E-1,-4E-1],"categories":[],"categories_nodes":[],"categories_segments":[],"categories_sizes":[],"default_left":[true,true,true,false,false,false,false],"id":94,"left_children":[1,3,5,-1,-1,-1,-1],"loss_changes":[6.465963E0,5.925826E0,1.0862976E1,0E0,0E0,0E0,0E0],"parents":[2147483647,0,0,1,1,2,2],"right_children":[2,4,6,-1,-1,-1,-1],"split_conditions":[6.5E0,-7.5E0,8.15E1,1.7388731E-2,-3.4334462E-3,3.180773E-2,-4.0000003E-2],"split_indices":[14,14,17,0,0,0,0],"split_type":[0,0,0,0,0,0,0],"sum_hessian":[1.3554509E3,1.2294519E3,1.25998985E2,1.555908E2,1.0738611E3,1.17865486E2,8.133503E0],"tree_param":{"num_deleted":"0","num_feature":"23","num_nodes":"7","size_leaf_vector":"0"}},{"base_weights":[4.962829E-4,3.9451856E-2,-1.2629458E-1,6.962897E-2,-1.3460688E-1,2.2654407E-1,-1.7859294E-1],"categories":[],"categories_nodes":[],"categories_segments":[],"categories_sizes":[],"default_left":[true,true,true,false,false,false,false],"id":95,"left_children":[1,3,5,-1,-1,-1,-1],"loss_changes":[6.6961646E0,5.4566784E0,5.920215E0,0E0,0E0,0E0,0E0],"parents":[2147483647,0,0,1,1,2,2],"right_children":[2,4,6,-1,-1,-1,-1],"split_conditions":[5.5E0,8.65E1,1.75E1,6.962897E-3,-1.3460688E-2,2.2654407E-2,-1.7859293E-2],"split_indices":[19,22,17,0,0,0,0],"split_type":[0,0,0,0,0,0,0],"sum_hessian":[1.3537067E3,1.0360704E3,3.1763626E2,8.834959E2,1.5257452E2,4.0572956E1,2.770633E2],"tree_param":{"num_deleted":"0","num_feature":"23","num_nodes":"7","size_leaf_vector":"0"}},{"base_weights":[6.067712E-3,1.8079584E-2,-4E-1,-1.76539E-2,1.2119773E-1,-4E-1,4E-1],"categories":[],"categories_nodes":[],"categories_segments":[],"categories_sizes":[],"default_left":[true,true,true,false,false,false,false],"id":96,"left_children":[1,3,5,-1,-1,-1,-1],"loss_changes":[6.927909E0,4.8194423E0,6.5470123E0,0E0,0E0,0E0,0E0],"parents":[2147483647,0,0,1,1,2,2],"right_children":[2,4,6,-1,-1,-1,-1],"split_conditions":[1.15E1,2.65E1,4.5E0,-1.7653899E-3,1.2119773E-2,-4.0000003E-2,4.0000003E-2],"split_indices":[19,4,20,0,0,0,0],"split_type":[0,0,0,0,0,0,0],"sum_hessian":[1.341859E3,1.3063549E3,3.5504177E1,9.707797E2,3.3557507E2,2.9893745E1,5.610431E0],"tree_param":{"num_deleted":"0","num_feature":"23","num_nodes":"7","size_leaf_vector":"0"}},{"base_weights":[-1.0150248E-2,1.9399129E-1,-3.674244E-2,2.5361714E-1,-4E-1,-2.6650286E-1,-1.0561941E-2],"categories":[],"categories_nodes":[],"categories_segments":[],"categories_sizes":[],"default_left":[true,true,true,false,false,false,false],"id":97,"left_children":[1,3,5,-1,-1,-1,-1],"loss_changes":[7.251677E0,6.7133E0,7.1045475E0,0E0,0E0,0E0,0E0],"parents":[2147483647,0,0,1,1,2,2],"right_children":[2,4,6,-1,-1,-1,-1],"split_conditions":[-7.5E0,2.95E1,8.5E0,2.5361715E-2,-4.0000003E-2,-2.6650285E-2,-1.0561942E-3],"split_indices":[14,2,4,0,0,0,0],"split_type":[0,0,0,0,0,0,0],"sum_hessian":[1.3335225E3,1.5296371E2,1.1805587E3,1.4224309E2,1.0720624E1,1.19821785E2,1.0607369E3],"tree_param":{"num_deleted":"0","num_feature":"23","num_nodes":"7","size_leaf_vector":"0"}},{"base_weights":[7.6860897E-3,-1.7754236E-2,1.7262405E-1,-4.0214587E-2,2.3616347E-1,2.3471712E-1,-2.6535672E-1],"categories":[],"categories_nodes":[],"categories_segments":[],"categories_sizes":[],"default_left":[true,true,true,false,false,false,false],"id":98,"left_children":[1,3,5,-1,-1,-1,-1],"loss_changes":[5.688993E0,6.7099795E0,4.9893103E0,0E0,0E0,0E0,0E0],"parents":[2147483647,0,0,1,1,2,2],"right_children":[2,4,6,-1,-1,-1,-1],"split_conditions":[3.15E1,8.55E1,7.5E0,-4.021459E-3,2.3616347E-2,2.3471711E-2,-2.6535673E-2],"split_indices":[8,0,19,0,0,0,0],"split_type":[0,0,0,0,0,0,0],"sum_hessian":[1.3540586E3,1.1738883E3,1.8017027E2,1.0792634E3,9.462487E1,1.582054E2,2.1964874E1],"tree_param":{"num_deleted":"0","num_feature":"23","num_nodes":"7","size_leaf_vector":"0"}},{"base_weights":[-1.0147625E-2,-1.0101319E-1,3.0772619E-2,-5.135355E-2,-4E-1,-2.6330733E-1,5.9061375E-2],"categories":[],"categories_nodes":[],"categories_segments":[],"categories_sizes":[],"default_left":[true,true,true,false,false,false,false],"id":99,"left_children":[1,3,5,-1,-1,-1,-1],"loss_changes":[5.0412927E0,7.451481E0,7.794172E0,0E0,0E0,0E0,0E0],"parents":[2147483647,0,0,1,1,2,2],"right_children":[2,4,6,-1,-1,-1,-1],"split_conditions":[5.5E0,7.15E1,5E-1,-5.135355E-3,-4.0000003E-2,-2.6330734E-2,5.9061376E-3],"split_indices":[9,0,17,0,0,0,0],"split_type":[0,0,0,0,0,0,0],"sum_hessian":[1.3539912E3,4.1996597E2,9.340252E2,3.712034E2,4.8762577E1,8.123429E1,8.527909E2],"tree_param":{"num_deleted":"0","num_feature":"23","num_nodes":"7","size_leaf_vector":"0"}},{"base_weights":[1.44088E-3,1.1936625E-2,-4E-1,-1.1140543E-2,2.3375314E-1,-4E-1,4E-1],"categories":[],"categories_nodes":[],"categories_segments":[],"categories_sizes":[],"default_left":[true,true,true,false,false,false,false],"id":100,"left_children":[1,3,5,-1,-1,-1,-1],"loss_changes":[5.9489374E0,6.783329E0,6.122932E0,0E0,0E0,0E0,0E0],"parents":[2147483647,0,0,1,1,2,2],"right_children":[2,4,6,-1,-1,-1,-1],"split_conditions":[3.85E1,6.5E0,3.585E2,-1.1140544E-3,2.3375316E-2,-4.0000003E-2,4.0000003E-2],"split_indices":[2,14,1,0,0,0,0],"split_type":[0,0,0,0,0,0,0],"sum_hessian":[1.3559102E3,1.3236458E3,3.2264416E1,1.1997743E3,1.2387137E2,2.5889843E1,6.3745737E0],"tree_param":{"num_deleted":"0","num_feature":"23","num_nodes":"7","size_leaf_vector":"0"}},{"base_weights":[-4.76307E-3,1.5416793E-2,-1.6751204E-1,-9.707252E-3,2.0378943E-1,-2.7299243E-1,1.8723325E-1],"categories":[],"categories_nodes":[],"categories_segments":[],"categories_sizes":[],"default_left":[true,true,true,false,false,false,false],"id":101,"left_children":[1,3,5,-1,-1,-1,-1],"loss_changes":[4.4347196E0,5.6885605E0,5.624855E0,0E0,0E0,0E0,0E0],"parents":[2147483647,0,0,1,1,2,2],"right_children":[2,4,6,-1,-1,-1,-1],"split_conditions":[7.5E0,3.15E1,4.15E1,-9.7072514E-4,2.0378944E-2,-2.7299244E-2,1.8723326E-2],"split_indices":[19,4,11,0,0,0,0],"split_type":[0,0,0,0,0,0,0],"sum_hessian":[1.348512E3,1.2005558E3,1.4795619E2,1.0601125E3,1.4044318E2,1.14223335E2,3.373285E1],"tree_param":{"num_deleted":"0","num_feature":"23","num_nodes":"7","size_leaf_vector":"0"}},{"base_weights":[-5.2980497E-4,1.3267452E-2,-2.8190058E-1,-7.319221E-2,7.2671734E-2,-4.1588736E-3,-4E-1],"categories":[],"categories_nodes":[],"categories_segments":[],"categories_sizes":[],"default_left":[true,true,true,false,false,false,false],"id":102,"left_children":[1,3,5,-1,-1,-1,-1],"loss_changes":[5.208926E0,6.5747814E0,5.4049373E0,0E0,0E0,0E0,0E0],"parents":[2147483647,0,0,1,1,2,2],"right_children":[2,4,6,-1,-1,-1,-1],"split_conditions":[5.5E0,1.5E0,4.05E1,-7.319221E-3,7.2671734E-3,-4.1588736E-4,-4.0000003E-2],"split_indices":[12,20,17,0,0,0,0],"split_type":[0,0,0,0,0,0,0],"sum_hessian":[1.3398015E3,1.2780825E3,6.171902E1,5.20415E2,7.576675E2,4.0098354E1,2.1620665E1],"tree_param":{"num_deleted":"0","num_feature":"23","num_nodes":"7","size_leaf_vector":"0"}},{"base_weights":[8.978085E-3,2.0203859E-2,-2.871715E-1,-5.6664187E-2,7.072848E-2,3.4160158E-1,-4E-1],"categories":[],"categories_nodes":[],"categories_segments":[],"categories_sizes":[],"default_left":[true,true,true,false,false,false,false],"id":103,"left_children":[1,3,5,-1,-1,-1,-1],"loss_changes":[4.486928E0,5.0513535E0,7.305173E0,0E0,0E0,0E0,0E0],"parents":[2147483647,0,0,1,1,2,2],"right_children":[2,4,6,-1,-1,-1,-1],"split_conditions":[5.5E0,1.5E0,1.5E0,-5.666419E-3,7.0728483E-3,3.416016E-2,-4.0000003E-2],"split_indices":[15,20,12,0,0,0,0],"split_type":[0,0,0,0,0,0,0],"sum_hessian":[1.3469064E3,1.2986133E3,4.8293137E1,5.149889E2,7.836244E2,1.3714701E1,3.4578434E1],"tree_param":{"num_deleted":"0","num_feature":"23","num_nodes":"7","size_leaf_vector":"0"}},{"base_weights":[7.7510895E-3,-4.7175057E-2,6.9482945E-2,2.7108524E-2,-2.4134158E-1,-4E-1,9.938361E-2],"categories":[],"categories_nodes":[],"categories_segments":[],"categories_sizes":[],"default_left":[true,true,true,false,false,false,false],"id":104,"left_children":[1,3,5,-1,-1,-1,-1],"loss_changes":[4.595989E0,1.0353281E1,9.163822E0,0E0,0E0,0E0,0E0],"parents":[2147483647,0,0,1,1,2,2],"right_children":[2,4,6,-1,-1,-1,-1],"split_conditions":[9.65E1,7.15E1,2.55E1,2.7108525E-3,-2.4134157E-2,-4.0000003E-2,9.938361E-3],"split_indices":[7,0,3,0,0,0,0],"split_type":[0,0,0,0,0,0,0],"sum_hessian":[1.3535055E3,7.163586E2,6.371469E2,5.1875525E2,1.9760329E2,3.6743084E1,6.004038E2],"tree_param":{"num_deleted":"0","num_feature":"23","num_nodes":"7","size_leaf_vector":"0"}},{"base_weights":[-3.3482006E-3,1.763432E-1,-2.6598731E-2,1.449529E-2,4E-1,-4E-1,-1.5531125E-2],"categories":[],"categories_nodes":[],"categories_segments":[],"categories_sizes":[],"default_left":[true,true,true,false,false,false,false],"id":105,"left_children":[1,3,5,-1,-1,-1,-1],"loss_changes":[5.6694927E0,9.387978E0,7.056753E0,0E0,0E0,0E0,0E0],"parents":[2147483647,0,0,1,1,2,2],"right_children":[2,4,6,-1,-1,-1,-1],"split_conditions":[-7.5E0,2.5E0,-4E0,1.449529E-3,4.0000003E-2,-4.0000003E-2,-1.5531125E-3],"split_indices":[14,17,17,0,0,0,0],"split_type":[0,0,0,0,0,0,0],"sum_hessian":[1.3548904E3,1.5447191E2,1.2004185E3,1.155776E2,3.8894306E1,1.9351818E1,1.1810667E3],"tree_param":{"num_deleted":"0","num_feature":"23","num_nodes":"7","size_leaf_vector":"0"}},{"base_weights":[3.6711565E-3,5.652745E-2,-9.9786915E-2,-1.1780513E-2,1.7479998E-1,4E-1,-1.1985211E-1],"categories":[],"categories_nodes":[],"categories_segments":[],"categories_sizes":[],"default_left":[true,true,true,false,false,false,false],"id":106,"left_children":[1,3,5,-1,-1,-1,-1],"loss_changes":[7.3507643E0,7.189436E0,6.38454E0,0E0,0E0,0E0,0E0],"parents":[2147483647,0,0,1,1,2,2],"right_children":[2,4,6,-1,-1,-1,-1],"split_conditions":[6.95E1,1.95E1,-7.5E0,-1.1780513E-3,1.7479999E-2,4.0000003E-2,-1.1985212E-2],"split_indices":[18,18,14,0,0,0,0],"split_type":[0,0,0,0,0,0,0],"sum_hessian":[1.3421917E3,8.8864185E2,4.5354974E2,5.6387683E2,3.2476505E2,1.0195171E1,4.4335458E2],"tree_param":{"num_deleted":"0","num_feature":"23","num_nodes":"7","size_leaf_vector":"0"}},{"base_weights":[4.684391E-3,-2.2102792E-2,1.7842254E-1,-4.078691E-3,-3.2350075E-1,4E-1,8.5989155E-2],"categories":[],"categories_nodes":[],"categories_segments":[],"categories_sizes":[],"default_left":[true,true,true,false,false,false,false],"id":107,"left_children":[1,3,5,-1,-1,-1,-1],"loss_changes":[6.2761397E0,6.346843E0,6.3263183E0,0E0,0E0,0E0,0E0],"parents":[2147483647,0,0,1,1,2,2],"right_children":[2,4,6,-1,-1,-1,-1],"split_conditions":[3.15E1,6.25E1,8.25E1,-4.0786908E-4,-3.2350074E-2,4.0000003E-2,8.598915E-3],"split_indices":[8,13,7,0,0,0,0],"split_type":[0,0,0,0,0,0,0],"sum_hessian":[1.3467131E3,1.1675686E3,1.7914453E2,1.1026423E3,6.4926315E1,2.4664206E1,1.5448032E2],"tree_param":{"num_deleted":"0","num_feature":"23","num_nodes":"7","size_leaf_vector":"0"}},{"base_weights":[-5.5276E-3,8.226806E-3,-2.813525E-1,-7.985692E-2,4.9072564E-2,3.4569478E-1,-4E-1],"categories":[],"categories_nodes":[],"categories_segments":[],"categories_sizes":[],"default_left":[true,true,true,false,false,false,false],"id":108,"left_children":[1,3,5,-1,-1,-1,-1],"loss_changes":[5.1104217E0,4.62158E0,5.919104E0,0E0,0E0,0E0,0E0],"parents":[2147483647,0,0,1,1,2,2],"right_children":[2,4,6,-1,-1,-1,-1],"split_conditions":[5.5E0,5.5E0,1.05E1,-7.985692E-3,4.9072565E-3,3.456948E-2,-4.0000003E-2],"split_indices":[12,9,17,0,0,0,0],"split_type":[0,0,0,0,0,0,0],"sum_hessian":[1.3454326E3,1.2824515E3,6.298112E1,4.0598697E2,8.7646454E2,1.1552192E1,5.142893E1],"tree_param":{"num_deleted":"0","num_feature":"23","num_nodes":"7","size_leaf_vector":"0"}},{"base_weights":[-4.2846734E-3,3.6798094E-3,-4E-1,3.30435E-2,-1.2160401E-1,2.3702297E-1,-4E-1],"categories":[],"categories_nodes":[],"categories_segments":[],"categories_sizes":[],"default_left":[true,true,true,false,false,false,false],"id":109,"left_children":[1,3,5,-1,-1,-1,-1],"loss_changes":[5.4332566E0,4.895484E0,1.5113606E0,0E0,0E0,0E0,0E0],"parents":[2147483647,0,0,1,1,2,2],"right_children":[2,4,6,-1,-1,-1,-1],"split_conditions":[7.5E0,8.35E1,5.5E0,3.30435E-3,-1.2160401E-2,2.3702297E-2,-4.0000003E-2],"split_indices":[16,18,17,0,0,0,0],"split_type":[0,0,0,0,0,0,0],"sum_hessian":[1.3469803E3,1.328638E3,1.8342352E1,1.0769594E3,2.5167862E2,3.1186972E0,1.5223655E1],"tree_param":{"num_deleted":"0","num_feature":"23","num_nodes":"7","size_leaf_vector":"0"}},{"base_weights":[1.46095E-2,3.1669855E-3,3.2908717E-1,-7.1032755E-2,4.938058E-2,4E-1,-3.7787628E-1],"categories":[],"categories_nodes":[],"categories_segments":[],"categories_sizes":[],"default_left":[true,true,true,false,false,false,false],"id":110,"left_children":[1,3,5,-1,-1,-1,-1],"loss_changes":[4.8295193E0,4.4485445E0,3.6097112E0,0E0,0E0,0E0,0E0],"parents":[2147483647,0,0,1,1,2,2],"right_children":[2,4,6,-1,-1,-1,-1],"split_conditions":[3.985E2,1.5E0,3.5E0,-7.1032755E-3,4.938058E-3,4.0000003E-2,-3.7787627E-2],"split_indices":[1,20,12,0,0,0,0],"split_type":[0,0,0,0,0,0,0],"sum_hessian":[1.3414133E3,1.2952932E3,4.6120182E1,4.969162E2,7.98377E2,4.04986E1,5.621581E0],"tree_param":{"num_deleted":"0","num_feature":"23","num_nodes":"7","size_leaf_vector":"0"}},{"base_weights":[-2.4418572E-2,1.5072535E-1,-4.663885E-2,-3.3629006E-3,4E-1,-8.840572E-2,8.607527E-2],"categories":[],"categories_nodes":[],"categories_segments":[],"categories_sizes":[],"default_left":[true,true,true,false,false,false,false],"id":111,"left_children":[1,3,5,-1,-1,-1,-1],"loss_changes":[5.203577E0,9.5382185E0,6.580039E0,0E0,0E0,0E0,0E0],"parents":[2147483647,0,0,1,1,2,2],"right_children":[2,4,6,-1,-1,-1,-1],"split_conditions":[-7.5E0,1.5E0,1.5E0,-3.3629008E-4,4.0000003E-2,-8.840572E-3,8.607527E-3],"split_indices":[14,19,14,0,0,0,0],"split_type":[0,0,0,0,0,0,0],"sum_hessian":[1.3342739E3,1.4956833E2,1.1847057E3,1.16111374E2,3.345696E1,9.013674E2,2.8333826E2],"tree_param":{"num_deleted":"0","num_feature":"23","num_nodes":"7","size_leaf_vector":"0"}},{"base_weights":[-4.574201E-3,1.6507696E-1,-2.6114691E-2,3.0603142E-2,4E-1,-2.7685043E-1,-2.0436263E-3],"categories":[],"categories_nodes":[],"categories_segments":[],"categories_sizes":[],"default_left":[true,true,true,false,false,false,false],"id":112,"left_children":[1,3,5,-1,-1,-1,-1],"loss_changes":[4.898216E0,7.930372E0,7.176685E0,0E0,0E0,0E0,0E0],"parents":[2147483647,0,0,1,1,2,2],"right_children":[2,4,6,-1,-1,-1,-1],"split_conditions":[-7.5E0,1.15E1,5.95E1,3.0603143E-3,4.0000003E-2,-2.7685044E-2,-2.0436263E-4],"split_indices":[14,4,0,0,0,0,0],"split_type":[0,0,0,0,0,0,0],"sum_hessian":[1.338193E3,1.5001596E2,1.188177E3,1.19368484E2,3.0647469E1,1.0315576E2,1.0850212E3],"tree_param":{"num_deleted":"0","num_feature":"23","num_nodes":"7","size_leaf_vector":"0"}},{"base_weights":[-1.5165557E-2,-4.4015106E-2,8.95067E-2,-2.906778E-2,-3.5443446E-1,-2.6888677E-1,1.836603E-1],"categories":[],"categories_nodes":[],"categories_segments":[],"categories_sizes":[],"default_left":[true,true,true,false,false,false,false],"id":113,"left_children":[1,3,5,-1,-1,-1,-1],"loss_changes":[4.0526056E0,4.8695855E0,9.835696E0,0E0,0E0,0E0,0E0],"parents":[2147483647,0,0,1,1,2,2],"right_children":[2,4,6,-1,-1,-1,-1],"split_conditions":[9.75E1,9.35E1,1.15E1,-2.9067781E-3,-3.5443448E-2,-2.6888678E-2,1.836603E-2],"split_indices":[3,3,4,0,0,0,0],"split_type":[0,0,0,0,0,0,0],"sum_hessian":[1.3397301E3,1.050714E3,2.890161E2,1.00348773E3,4.7226337E1,5.9744442E1,2.2927165E2],"tree_param":{"num_deleted":"0","num_feature":"23","num_nodes":"7","size_leaf_vector":"0"}},{"base_weights":[-1.2127603E-3,4.474558E-2,-9.7157486E-2,8.061039E-2,-9.424258E-2,-6.33801E-2,-4E-1],"categories":[],"categories_nodes":[],"categories_segments":[],"categories_sizes":[],"default_left":[true,true,true,false,false,false,false],"id":114,"left_children":[1,3,5,-1,-1,-1,-1],"loss_changes":[5.9385195E0,4.5467734E0,6.2857757E0,0E0,0E0,0E0,0E0],"parents":[2147483647,0,0,1,1,2,2],"right_children":[2,4,6,-1,-1,-1,-1],"split_conditions":[1.5E0,4.55E1,6.25E1,8.061039E-3,-9.424258E-3,-6.33801E-3,-4.0000003E-2],"split_indices":[15,13,13,0,0,0,0],"split_type":[0,0,0,0,0,0,0],"sum_hessian":[1.344782E3,9.0960645E2,4.3517557E2,7.233672E2,1.8623924E2,4.0891785E2,2.6257736E1],"tree_param":{"num_deleted":"0","num_feature":"23","num_nodes":"7","size_leaf_vector":"0"}},{"base_weights":[-7.6555177E-3,1.1001116E-1,-3.7562665E-2,6.4522E-2,4E-1,-3.030718E-1,-8.349743E-4],"categories":[],"categories_nodes":[],"categories_segments":[],"categories_sizes":[],"default_left":[true,true,true,false,false,false,false],"id":115,"left_children":[1,3,5,-1,-1,-1,-1],"loss_changes":[4.705515E0,3.8238652E0,1.0394593E1,0E0,0E0,0E0,0E0],"parents":[2147483647,0,0,1,1,2,2],"right_children":[2,4,6,-1,-1,-1,-1],"split_conditions":[4.5E0,2.5E0,8.55E1,6.4522E-3,4.0000003E-2,-3.030718E-2,-8.349743E-5],"split_indices":[10,16,7,0,0,0,0],"split_type":[0,0,0,0,0,0,0],"sum_hessian":[1.3349712E3,2.7000098E2,1.0649702E3,2.3688864E2,3.3112335E1,1.285335E2,9.3643677E2],"tree_param":{"num_deleted":"0","num_feature":"23","num_nodes":"7","size_leaf_vector":"0"}},{"base_weights":[-1.017296E-2,-3.7756816E-2,9.723088E-2,-1.5747352E-1,1.204431E-2,4E-1,4.124455E-2],"categories":[],"categories_nodes":[],"categories_segments":[],"categories_sizes":[],"default_left":[true,true,true,false,false,false,false],"id":116,"left_children":[1,3,5,-1,-1,-1,-1],"loss_changes":[3.9981637E0,6.4021606E0,5.542837E0,0E0,0E0,0E0,0E0],"parents":[2147483647,0,0,1,1,2,2],"right_children":[2,4,6,-1,-1,-1,-1],"split_conditions":[2.05E1,1.25E1,7.95E1,-1.5747352E-2,1.2044309E-3,4.0000003E-2,4.124455E-3],"split_indices":[8,4,7,0,0,0,0],"split_type":[0,0,0,0,0,0,0],"sum_hessian":[1.3473009E3,1.0725048E3,2.747962E2,3.1444638E2,7.5805835E2,3.5054012E1,2.3974219E2],"tree_param":{"num_deleted":"0","num_feature":"23","num_nodes":"7","size_leaf_vector":"0"}},{"base_weights":[-1.3568514E-4,4.115374E-2,-8.434252E-2,5.480521E-2,-3.475748E-1,-6.1766384E-4,-2.52667E-1],"categories":[],"categories_nodes":[],"categories_segments":[],"categories_sizes":[],"default_left":[true,true,true,false,false,false,false],"id":117,"left_children":[1,3,5,-1,-1,-1,-1],"loss_changes":[4.6899047E0,4.8221474E0,6.2542663E0,0E0,0E0,0E0,0E0],"parents":[2147483647,0,0,1,1,2,2],"right_children":[2,4,6,-1,-1,-1,-1],"split_conditions":[4.5E0,3.85E1,7.15E1,5.4805214E-3,-3.475748E-2,-6.176638E-5,-2.5266701E-2],"split_indices":[19,2,0,0,0,0,0],"split_type":[0,0,0,0,0,0,0],"sum_hessian":[1.3468958E3,9.040977E2,4.4279807E2,8.742544E2,2.9843292E1,2.9638126E2,1.464168E2],"tree_param":{"num_deleted":"0","num_feature":"23","num_nodes":"7","size_leaf_vector":"0"}},{"base_weights":[2.0215383E-3,-1.304745E-2,2.3568283E-1,-4.368564E-3,-3.9628154E-1,2.9180416E-1,-4E-1],"categories":[],"categories_nodes":[],"categories_segments":[],"categories_sizes":[],"default_left":[true,true,true,false,false,false,false],"id":118,"left_children":[1,3,5,-1,-1,-1,-1],"loss_changes":[4.6915684E0,4.16195E0,3.5856366E0,0E0,0E0,0E0,0E0],"parents":[2147483647,0,0,1,1,2,2],"right_children":[2,4,6,-1,-1,-1,-1],"split_conditions":[3.675E2,3.85E1,5.65E1,-4.368564E-4,-3.9628156E-2,2.9180417E-2,-4.0000003E-2],"split_indices":[1,2,8,0,0,0,0],"split_type":[0,0,0,0,0,0,0],"sum_hessian":[1.3305652E3,1.2508417E3,7.972353E1,1.2241309E3,2.67108E1,7.4984024E1,4.7395096E0],"tree_param":{"num_deleted":"0","num_feature":"23","num_nodes":"7","size_leaf_vector":"0"}},{"base_weights":[-1.5187603E-2,-1.9541858E-2,4E-1,-1.1219993E-2,-3.0620492E-1,1.2958413E-1,4E-1],"categories":[],"categories_nodes":[],"categories_segments":[],"categories_sizes":[],"default_left":[true,true,true,false,false,false,false],"id":119,"left_children":[1,3,5,-1,-1,-1,-1],"loss_changes":[3.243693E0,3.149259E0,2.1343279E-1,0E0,0E0,0E0,0E0],"parents":[2147483647,0,0,1,1,2,2],"right_children":[2,4,6,-1,-1,-1,-1],"split_conditions":[1.985E2,1.15E1,5.35E1,-1.1219993E-3,-3.0620491E-2,1.2958414E-2,4.0000003E-2],"split_indices":[3,19,22,0,0,0,0],"split_type":[0,0,0,0,0,0,0],"sum_hessian":[1.3286879E3,1.320568E3,8.119875E0,1.2843231E3,3.6244923E1,4.1067896E0,4.0130854E0],"tree_param":{"num_deleted":"0","num_feature":"23","num_nodes":"7","size_leaf_vector":"0"}},{"base_weights":[1.2204607E-4,8.490698E-3,-3.9490625E-1,-4.3327473E-3,2.278045E-1,3.0742842E-1,-4E-1],"categories":[],"categories_nodes":[],"categories_segments":[],"categories_sizes":[],"default_left":[true,true,true,false,false,false,false],"id":120,"left_children":[1,3,5,-1,-1,-1,-1],"loss_changes":[4.4164968E0,3.6802063E0,1.8919683E0,0E0,0E0,0E0,0E0],"parents":[2147483647,0,0,1,1,2,2],"right_children":[2,4,6,-1,-1,-1,-1],"split_conditions":[6.85E1,4.75E1,4.5E1,-4.3327475E-4,2.278045E-2,3.0742843E-2,-4.0000003E-2],"split_indices":[8,8,3,0,0,0,0],"split_type":[0,0,0,0,0,0,0],"sum_hessian":[1.3339478E3,1.3072327E3,2.6715143E1,1.2359462E3,7.1286476E1,3.101643E0,2.36135E1],"tree_param":{"num_deleted":"0","num_feature":"23","num_nodes":"7","size_leaf_vector":"0"}},{"base_weights":[1.4198992E-2,2.1392364E-2,-4E-1,6.2954865E-2,-4.867454E-2,-4E-1,4E-1],"categories":[],"categories_nodes":[],"categories_segments":[],"categories_sizes":[],"default_left":[true,true,true,false,false,false,false],"id":121,"left_children":[1,3,5,-1,-1,-1,-1],"loss_changes":[4.5937276E0,3.83845E0,3.9254522E0,0E0,0E0,0E0,0E0],"parents":[2147483647,0,0,1,1,2,2],"right_children":[2,4,6,-1,-1,-1,-1],"split_conditions":[7.5E0,3.75E1,7.05E1,6.295487E-3,-4.867454E-3,-4.0000003E-2,4.0000003E-2],"split_indices":[16,17,17,0,0,0,0],"split_type":[0,0,0,0,0,0,0],"sum_hessian":[1.3344603E3,1.3160264E3,1.8433979E1,8.2609955E2,4.899268E2,1.52716055E1,3.1623735E0],"tree_param":{"num_deleted":"0","num_feature":"23","num_nodes":"7","size_leaf_vector":"0"}},{"base_weights":[-1.1778818E-2,4.2302437E-2,-9.685732E-2,5.5760078E-2,-3.8031808E-1,-1.791088E-1,8.795803E-2],"categories":[],"categories_nodes":[],"categories_segments":[],"categories_sizes":[],"default_left":[true,true,true,false,false,false,false],"id":122,"left_children":[1,3,5,-1,-1,-1,-1],"loss_changes":[6.153807E0,4.6726036E0,7.9162974E0,0E0,0E0,0E0,0E0],"parents":[2147483647,0,0,1,1,2,2],"right_children":[2,4,6,-1,-1,-1,-1],"split_conditions":[7.35E1,6.5E0,5E-1,5.576008E-3,-3.803181E-2,-1.7910881E-2,8.795803E-3],"split_indices":[0,12,14,0,0,0,0],"split_type":[0,0,0,0,0,0,0],"sum_hessian":[1.3355587E3,8.168317E2,5.187269E2,7.92465E2,2.4366653E1,3.5899033E2,1.5973662E2],"tree_param":{"num_deleted":"0","num_feature":"23","num_nodes":"7","size_leaf_vector":"0"}},{"base_weights":[-3.6816178E-3,-1.0518566E-1,2.3165898E-2,2.3644952E-2,-3.3189967E-1,1.1406665E-1,-3.5165135E-2],"categories":[],"categories_nodes":[],"categories_segments":[],"categories_sizes":[],"default_left":[true,true,true,false,false,false,false],"id":123,"left_children":[1,3,5,-1,-1,-1,-1],"loss_changes":[3.670193E0,8.2358E0,5.652036E0,0E0,0E0,0E0,0E0],"parents":[2147483647,0,0,1,1,2,2],"right_children":[2,4,6,-1,-1,-1,-1],"split_conditions":[9.75E1,5.55E1,6.95E1,2.3644953E-3,-3.3189967E-2,1.1406666E-2,-3.5165136E-3],"split_indices":[1,1,0,0,0,0,0],"split_type":[0,0,0,0,0,0,0],"sum_hessian":[1.3449006E3,2.8070483E2,1.0641958E3,1.7956335E2,1.0114147E2,4.1559445E2,6.486013E2],"tree_param":{"num_deleted":"0","num_feature":"23","num_nodes":"7","size_leaf_vector":"0"}},{"base_weights":[-8.4656395E-4,1.0023091E-2,-3.007338E-1,4.2605445E-2,-1.161988E-1,-4E-1,2.706362E-1],"categories":[],"categories_nodes":[],"categories_segments":[],"categories_sizes":[],"default_left":[true,true,true,false,false,false,false],"id":124,"left_children":[1,3,5,-1,-1,-1,-1],"loss_changes":[4.3543878E0,5.3068705E0,4.6262317E0,0E0,0E0,0E0,0E0],"parents":[2147483647,0,0,1,1,2,2],"right_children":[2,4,6,-1,-1,-1,-1],"split_conditions":[5.5E0,4.65E1,2.25E1,4.2605447E-3,-1.161988E-2,-4.0000003E-2,2.7063621E-2],"split_indices":[15,13,8,0,0,0,0],"split_type":[0,0,0,0,0,0,0],"sum_hessian":[1.3339119E3,1.2881871E3,4.5724804E1,1.0244124E3,2.6377475E2,3.505918E1,1.0665623E1],"tree_param":{"num_deleted":"0","num_feature":"23","num_nodes":"7","size_leaf_vector":"0"}},{"base_weights":[-1.0242112E-2,-3.736283E-2,9.592938E-2,-1.2823175E-2,-2.9698265E-1,4E-1,4.634016E-2],"categories":[],"categories_nodes":[],"categories_segments":[],"categories_sizes":[],"default_left":[true,true,true,false,false,false,false],"id":125,"left_children":[1,3,5,-1,-1,-1,-1],"loss_changes":[3.8799138E0,6.832353E0,4.7180185E0,0E0,0E0,0E0,0E0],"parents":[2147483647,0,0,1,1,2,2],"right_children":[2,4,6,-1,-1,-1,-1],"split_conditions":[2.05E1,1.25E1,7.85E1,-1.2823174E-3,-2.9698266E-2,4.0000003E-2,4.634016E-3],"split_indices":[8,8,7,0,0,0,0],"split_type":[0,0,0,0,0,0,0],"sum_hessian":[1.3452062E3,1.0720159E3,2.7319037E2,9.8039667E2,9.161917E1,3.2500965E1,2.406894E2],"tree_param":{"num_deleted":"0","num_feature":"23","num_nodes":"7","size_leaf_vector":"0"}},{"base_weights":[3.7808323E-3,2.3040611E-2,-1.6453233E-1,-1.0567033E-1,4.7413327E-2,-2.3571457E-1,4E-1],"categories":[],"categories_nodes":[],"categories_segments":[],"categories_sizes":[],"default_left":[true,true,true,false,false,false,false],"id":126,"left_children":[1,3,5,-1,-1,-1,-1],"loss_changes":[4.326913E0,3.7617712E0,7.078037E0,0E0,0E0,0E0,0E0],"parents":[2147483647,0,0,1,1,2,2],"right_children":[2,4,6,-1,-1,-1,-1],"split_conditions":[3.5E0,5.95E1,5.5E0,-1.0567034E-2,4.741333E-3,-2.3571458E-2,4.0000003E-2],"split_indices":[15,0,20,0,0,0,0],"split_type":[0,0,0,0,0,0,0],"sum_hessian":[1.3326078E3,1.1965515E3,1.3605617E2,1.8997398E2,1.0065776E3,1.2499167E2,1.1064501E1],"tree_param":{"num_deleted":"0",